/* Generated by Edge Impulse
 *
 * Permission is hereby granted, free of charge, to any person obtaining a copy
 * of this software and associated documentation files (the "Software"), to deal
 * in the Software without restriction, including without limitation the rights
 * to use, copy, modify, merge, publish, distribute, sublicense, and/or sell
 * copies of the Software, and to permit persons to whom the Software is
 * furnished to do so, subject to the following conditions:
 *
 * The above copyright notice and this permission notice shall be included in
 * all copies or substantial portions of the Software.
 *
 * THE SOFTWARE IS PROVIDED "AS IS", WITHOUT WARRANTY OF ANY KIND, EXPRESS OR
 * IMPLIED, INCLUDING BUT NOT LIMITED TO THE WARRANTIES OF MERCHANTABILITY,
 * FITNESS FOR A PARTICULAR PURPOSE AND NONINFRINGEMENT. IN NO EVENT SHALL THE
 * AUTHORS OR COPYRIGHT HOLDERS BE LIABLE FOR ANY CLAIM, DAMAGES OR OTHER
 * LIABILITY, WHETHER IN AN ACTION OF CONTRACT, TORT OR OTHERWISE, ARISING FROM,
 * OUT OF OR IN CONNECTION WITH THE SOFTWARE OR THE USE OR OTHER DEALINGS IN THE
 * SOFTWARE.
 */
// Generated on: 04.12.2023 20:45:51

#include <stdio.h>
#include <stdlib.h>
#include "edge-impulse-sdk/tensorflow/lite/c/builtin_op_data.h"
#include "edge-impulse-sdk/tensorflow/lite/c/common.h"
#include "edge-impulse-sdk/tensorflow/lite/micro/micro_mutable_op_resolver.h"
#include "edge-impulse-sdk/porting/ei_classifier_porting.h"

#if EI_CLASSIFIER_PRINT_STATE
#if defined(__cplusplus) && EI_C_LINKAGE == 1
extern "C" {
    extern void ei_printf(const char *format, ...);
}
#else
extern void ei_printf(const char *format, ...);
#endif
#endif

#if defined __GNUC__
#define ALIGN(X) __attribute__((aligned(X)))
#elif defined _MSC_VER
#define ALIGN(X) __declspec(align(X))
#elif defined __TASKING__
#define ALIGN(X) __align(X)
#elif defined __ICCARM__
#define ALIGN(x) __attribute__((aligned(x)))
#endif

#ifndef EI_MAX_SCRATCH_BUFFER_COUNT
#ifndef CONFIG_IDF_TARGET_ESP32S3
#define EI_MAX_SCRATCH_BUFFER_COUNT 4
#else
#define EI_MAX_SCRATCH_BUFFER_COUNT 4
#endif // CONFIG_IDF_TARGET_ESP32S3
#endif // EI_MAX_SCRATCH_BUFFER_COUNT

#ifndef EI_MAX_OVERFLOW_BUFFER_COUNT
#define EI_MAX_OVERFLOW_BUFFER_COUNT 10
#endif // EI_MAX_OVERFLOW_BUFFER_COUNT

using namespace tflite;
using namespace tflite::ops;
using namespace tflite::ops::micro;

namespace {

#if defined(EI_CLASSIFIER_ALLOCATION_STATIC_HIMAX) || defined(EI_CLASSIFIER_ALLOCATION_STATIC_HIMAX_GNU)
constexpr int kTensorArenaSize = 4560;
#else
constexpr int kTensorArenaSize = 3536;
#endif

#if defined(EI_CLASSIFIER_ALLOCATION_STATIC)
uint8_t tensor_arena[kTensorArenaSize] ALIGN(16);
#elif defined(EI_CLASSIFIER_ALLOCATION_STATIC_HIMAX)
#pragma Bss(".tensor_arena")
uint8_t tensor_arena[kTensorArenaSize] ALIGN(16);
#pragma Bss()
#elif defined(EI_CLASSIFIER_ALLOCATION_STATIC_HIMAX_GNU)
uint8_t tensor_arena[kTensorArenaSize] ALIGN(16) __attribute__((section(".tensor_arena")));
#else
#define EI_CLASSIFIER_ALLOCATION_HEAP 1
uint8_t* tensor_arena = NULL;
#endif

static uint8_t* tensor_boundary;
static uint8_t* current_location;

template <int SZ, class T> struct TfArray {
  int sz; T elem[SZ];
};
enum used_operators_e {
  OP_FULLY_CONNECTED, OP_SOFTMAX,  OP_LAST
};
struct TensorInfo_t { // subset of TfLiteTensor used for initialization from constant memory
  TfLiteAllocationType allocation_type;
  void* data;
  TfLiteIntArray* dims;
  size_t bytes;
};
struct NodeInfo_t { // subset of TfLiteNode used for initialization from constant memory
  struct TfLiteIntArray* inputs;
  struct TfLiteIntArray* outputs;
  void* builtin_data;
  used_operators_e used_op_index;
};

typedef struct {
  TfLiteTensor tensor;
  int16_t index;
} TfLiteTensorWithIndex;

typedef struct {
  TfLiteEvalTensor tensor;
  int16_t index;
} TfLiteEvalTensorWithIndex;

TfLiteContext ctx{};
static const int MAX_TFL_TENSOR_COUNT = 4;
static TfLiteTensorWithIndex tflTensors[MAX_TFL_TENSOR_COUNT];
static const int MAX_TFL_EVAL_COUNT = 4;
static TfLiteEvalTensorWithIndex tflEvalTensors[MAX_TFL_EVAL_COUNT];
TfLiteRegistration registrations[OP_LAST];
TfLiteNode tflNodes[4];

const TfArray<2, int> tensor_dimension0 = { 2, { 1,783 } };
const ALIGN(16) float tensor_data1[10] = { 0.025713425129652023, 0.0059381420724093914, -0.028992487117648125, -0.01016591303050518, 0.0059128757566213608, 0.017635304480791092, 0.0097265886142849922, 0.0038645404856652021, 0.0151606360450387, -0.0089882193133234978, };
const TfArray<1, int> tensor_dimension1 = { 1, { 10 } };
const ALIGN(16) float tensor_data2[20] = { -0.0056695542298257351, 0.0013016449520364404, 0.0078093311749398708, 0.015580610372126102, 0.0013973726890981197, -0.00016623684496153146, -0.011405060067772865, -0.0051478785462677479, -0.00066840276122093201, 0.060915395617485046, 0.029654655605554581, 0.0056836451403796673, -0.003221679013222456, 0.013496457599103451, -4.2164801925537176e-06, 0.007776931393891573, -0.0054718945175409317, 0.011788464151322842, -0.003585330443456769, 0.010735753923654556, };
const TfArray<1, int> tensor_dimension2 = { 1, { 20 } };
const ALIGN(8) float tensor_data3[2] = { 0.0073960330337285995, -0.0073960279114544392, };
const TfArray<1, int> tensor_dimension3 = { 1, { 2 } };
const ALIGN(16) float tensor_data4[20*783] = { 
  0.0029387748800218105, -0.05387747660279274, -0.023186694830656052, 0.070040188729763031, 0.02351057156920433, 0.0076019028201699257, -0.0029001189395785332, -0.078239955008029938, 0.0024325454141944647, -0.14446493983268738, -0.025245802477002144, 0.029063967987895012, -0.074059329926967621, -0.037926603108644485, -0.066542163491249084, 0.049466893076896667, 0.02289278618991375, 0.038328923285007477, -0.054673369973897934, -0.095168843865394592, 0.048775918781757355, -0.0043559875339269638, 0.11810725927352905, 0.073602542281150818, -0.033647261559963226, 0.11748259514570236, 0.050184480845928192, 0.0072235935367643833, -0.07012823224067688, -0.11506137996912003, -0.021232325583696365, 0.017364688217639923, -0.002955274423584342, -0.12884527444839478, -0.11067419499158859, -0.01890808530151844, -0.019467484205961227, 0.089061498641967773, 0.018140442669391632, -0.084084190428256989, -0.022972941398620605, 0.0086044473573565483, -0.016540629789233208, 0.019967338070273399, -0.048496060073375702, 0.077983751893043518, -0.03854052722454071, 0.055720474570989609, -0.05312831699848175, -0.023923791944980621, 0.027267713099718094, -0.025172038003802299, 0.044646315276622772, 0.0010548143181949854, -0.026716252788901329, 0.044334914535284042, 0.075024053454399109, 0.091819696128368378, 0.14787666499614716, 0.11025205254554749, 0.083816751837730408, 0.016860181465744972, 0.042893845587968826, -0.029679466038942337, 0.015743503347039223, -0.029027830809354782, 0.063022568821907043, 0.088041432201862335, 0.12353692203760147, -0.01851470023393631, 0.024029318243265152, -0.066510237753391266, 0.016365893185138702, 0.05971057340502739, 0.075977995991706848, 0.031254135072231293, 0.11783125996589661, 0.053144581615924835, -0.040023233741521835, 0.060959585011005402, 0.033275969326496124, 0.017869060859084129, 0.031263720244169235, 0.05255909264087677, -0.016229856759309769, 0.014731780625879765, -0.078493207693099976, -0.025504115968942642, -0.12022023648023605, -0.089399643242359161, 0.031935758888721466, -0.038020987063646317, -0.08854953944683075, 0.031563945114612579, -0.012693030759692192, -0.06769774854183197, 0.11005133390426636, 0.071743525564670563, -0.036342401057481766, -0.024958744645118713, -0.001756213023327291, -0.07163073867559433, 0.076275207102298737, 0.14208756387233734, 0.028403228148818016, -0.038644321262836456, 0.0096888206899166107, 0.078410439193248749, -7.3764014814514667e-05, 0.04572102427482605, 0.15714901685714722, 0.09834308922290802, 0.11303550750017166, 0.13044026494026184, -0.0021244862582534552, 0.093011118471622467, -0.049352403730154037, 0.022595837712287903, -0.028964066877961159, 0.034197267144918442, 0.064080409705638885, 0.024417148903012276, 0.028125228360295296, 0.10211028158664703, -0.078460246324539185, -0.0076492559164762497, 0.067534491419792175, 0.0028535563033074141, 0.099339447915554047, 0.0049918303266167641, -0.080046765506267548, -0.060321077704429626, 0.051291577517986298, 0.024233434349298477, 0.11553837358951569, 0.0059886155650019646, 0.057320654392242432, 0.1249910444021225, -0.012257667258381844, 0.047245018184185028, 0.10444130748510361, -0.01192895695567131, -0.072712868452072144, -0.076928220689296722, -0.070510268211364746, -0.045863885432481766, 0.015508830547332764, 0.10929925739765167, -0.024449333548545837, -0.007824210450053215, 0.009653143584728241, 0.097904659807682037, 0.014895882457494736, 0.099574409425258636, 0.074959248304367065, -0.00039407180156558752, 0.047263137996196747, -0.0039305230602622032, -0.056279860436916351, 0.049351781606674194, 0.073815301060676575, 0.11343751102685928, 0.02042713575065136, -0.024470990523695946, -0.0035075228661298752, -0.044394765049219131, -0.079142302274703979, -0.069869816303253174, 0.053882487118244171, 0.080933190882205963, -0.014765902422368526, 0.014842057600617409, -0.022611787542700768, -0.021538335829973221, -0.045026648789644241, 0.03822026401758194, 0.058112233877182007, 0.036231648176908493, -0.037200219929218292, -0.051268748939037323, 0.051383815705776215, 0.066588029265403748, -0.062380317598581314, -0.075961112976074219, 0.0095069622620940208, 0.055491041392087936, -0.026640255004167557, -0.094326652586460114, 0.011763450689613819, -0.0038703558966517448, 0.10962343961000443, -0.032349094748497009, -0.0088338898494839668, 0.0646534264087677, 0.06690012663602829, 0.054306365549564362, -0.079934388399124146, -0.017490781843662262, -0.065016798675060272, 0.019034063443541527, -0.082522734999656677, 0.0091024786233901978, 0.055257894098758698, 0.045477215200662613, 0.05798058956861496, -0.041146665811538696, 0.092060200870037079, -0.046120353043079376, 0.034119013696908951, 0.041462615132331848, 0.020482895895838737, 0.046145282685756683, -0.015882290899753571, -0.04442257434129715, -0.069753654301166534, -0.013256729580461979, -0.035015389323234558, -0.043440632522106171, -0.042167015373706818, -0.040914833545684814, 0.0082773827016353607, 0.062595643103122711, 0.039162520319223404, -0.10096773505210876, 0.035439111292362213, -0.069472245872020721, -0.028578834608197212, -0.042523063719272614, -0.052905429154634476, 0.084701307117938995, -0.0045718317851424217, -0.067885600030422211, -0.045950185507535934, -0.017866382375359535, -0.037067923694849014, -0.014525123871862888, 0.04981134831905365, -0.024671327322721481, 0.025883426889777184, 0.10614965856075287, -0.0068141608498990536, -0.066969722509384155, 0.025129804387688637, -0.068322017788887024, 0.044568672776222229, 0.090247452259063721, -0.028747795149683952, 0.034365657716989517, 0.0034815177787095308, 0.080365538597106934, 0.04119829460978508, 0.0853537917137146, 0.00080219906521961093, 0.0034510733094066381, -0.11168647557497025, -0.077675953507423401, -0.0038690543733537197, 0.026286451146006584, -0.046201582998037338, 0.02140970341861248, -0.023530764505267143, 0.10022983700037003, 0.019808346405625343, 0.0090416865423321724, -0.022504156455397606, 0.052962306886911392, -0.042678054422140121, 0.039725504815578461, 0.049607787281274796, 0.0431087426841259, -0.0070167570374906063, -0.076704598963260651, -0.033582627773284912, -0.018372759222984314, 1.3584889529738575e-05, -0.073880381882190704, -0.031724065542221069, 0.027589455246925354, -0.0092539852485060692, 0.00063033017795532942, 0.065727062523365021, -0.042875237762928009, 0.04146985337138176, -0.051710948348045349, 0.0020065121352672577, 0.012693371623754501, -0.066196233034133911, -0.01216974388808012, -0.067067578434944153, -0.030727675184607506, -0.0084912693127989769, 0.10257016867399216, 0.010213745757937431, -0.025162240490317345, 0.073248423635959625, -0.0041165174916386604, -0.047413021326065063, 0.007117727305740118, 0.05977948009967804, 0.079105593264102936, 0.002445003017783165, 0.059389378875494003, 0.010237052105367184, -0.083154641091823578, 0.034733444452285767, -0.042463943362236023, 0.10921644419431686, -0.091846048831939697, 0.076146595180034637, 0.08453436940908432, -0.040294479578733444, -0.1180974543094635, -0.076832488179206848, -0.09686463326215744, -0.067515671253204346, -0.096356064081192017, -0.057159919291734695, -0.085067518055438995, 0.048026110976934433, -0.001025480218231678, 0.024542719125747681, -0.049059480428695679, 0.029823716729879379, 0.065883636474609375, 0.078863918781280518, -0.03128240630030632, 0.018492819741368294, 0.069360502064228058, 0.073598898947238922, 0.020410278812050819, -0.042428720742464066, 0.018805138766765594, -0.076047755777835846, -0.075047291815280914, -0.037103638052940369, 0.026783749461174011, -0.041051410138607025, 0.053094211965799332, -0.12788929045200348, -0.09750240296125412, -0.087227091193199158, -0.093434795737266541, -0.0072812209837138653, 0.00059780979063361883, -0.054191257804632187, 0.071579627692699432, 0.0026358356699347496, 0.01188498642295599, 0.030913008376955986, -0.067210450768470764, 0.06155719980597496, 0.10125694423913956, -0.088673345744609833, -0.023554075509309769, 0.050720769912004471, 0.0039244941435754299, -0.059273391962051392, -0.067520022392272949, 0.058876484632492065, -0.0020393573213368654, -0.018049314618110657, -0.045443695038557053, 0.035269737243652344, 0.062201578170061111, 0.04473813995718956, -0.022125734016299248, -0.10792544484138489, -0.023049822077155113, -0.078505754470825195, 0.099053569138050079, 0.020801771432161331, -0.06902601569890976, 0.031512100249528885, 0.049713879823684692, 0.010459449142217636, 0.032441437244415283, -0.10293031483888626, -0.088266804814338684, -0.039202302694320679, -0.090761154890060425, 0.0093670496717095375, 0.086595982313156128, -0.057614754885435104, 0.023869022727012634, 0.1120825931429863, -0.068533323705196381, 0.0069648586213588715, -0.0087337987497448921, 0.11508987098932266, -0.0148498909547925, 0.089803732931613922, -0.027237990871071815, -0.11495938897132874, -0.044786505401134491, 0.026335261762142181, -0.032360535115003586, 0.003388287965208292, -0.13320337235927582, 0.013628589920699596, 0.042323369532823563, 0.027638860046863556, 0.053085979074239731, -0.010440119542181492, 0.044591095298528671, -0.0050278967246413231, -0.097607597708702087, 0.038215808570384979, 0.019443709403276443, 0.033141136169433594, -0.012667996808886528, 0.030370036140084267, 0.074326843023300171, 0.0083029130473732948, 0.013144412077963352, -0.00018867230392061174, -0.075986407697200775, 0.09859059751033783, -0.10244312137365341, 0.0083628622815012932, -0.13417871296405792, 0.039542507380247116, 0.043085921555757523, -0.032829832285642624, 0.078755572438240051, 0.047059878706932068, -0.035223223268985748, 0.15760599076747894, 0.014519182965159416, -0.14744076132774353, -0.018652359023690224, 0.043267417699098587, 0.10448615252971649, 0.14443551003932953, 0.028331862762570381, -0.072689749300479889, 0.020634941756725311, 0.063361063599586487, 0.071434184908866882, -0.092391259968280792, -0.062263328582048416, -0.057448014616966248, 0.019234867766499519, 0.059223104268312454, -0.056191969662904739, -0.12380755692720413, -0.056962877511978149, 0.04499991238117218, 0.026580102741718292, -0.082033462822437286, -0.058011710643768311, 0.066327236592769623, -0.03075752966105938, 0.077809102833271027, -0.020730413496494293, 0.097710035741329193, 0.02918633446097374, -0.066198885440826416, -0.027271978557109833, -0.046723984181880951, 0.015076118521392345, -0.036565575748682022, 0.097363926470279694, 0.0062008039094507694, -0.062790766358375549, 0.013418623246252537, -0.10167039185762405, -0.047075845301151276, 0.013603468425571918, -0.12835125625133514, -0.045251991599798203, 0.02612636610865593, -0.017415368929505348, 0.056818526238203049, 0.092814989387989044, 0.019163569435477257, 0.050512664020061493, -0.086833156645298004, -0.026658365502953529, 0.036297831684350967, 0.059477053582668304, 0.12050171941518784, 0.043902777135372162, -0.049591545015573502, -0.012456592172384262, 0.068512685596942902, 0.020748844370245934, -0.090034715831279755, -0.039032988250255585, -0.022817686200141907, 0.013151995837688446, -0.018462438136339188, -0.047013752162456512, 0.056995313614606857, -0.0074537578038871288, -0.0008313066209666431, -0.050966821610927582, -0.089499562978744507, 0.048367220908403397, -0.038722719997167587, 0.015952909365296364, -0.079325087368488312, -0.048772610723972321, -0.14110901951789856, -0.04521530494093895, 0.058939617127180099, -0.016258096322417259, -0.045342635363340378, 0.029064565896987915, -0.08597923070192337, 0.0048088910989463329, 0.055530190467834473, 0.018922854214906693, -0.060889635235071182, -0.052485678344964981, -0.017004316672682762, -0.041485391557216644, 0.018212750554084778, -0.059221770614385605, -0.037629533559083939, -0.00046521719195879996, -0.099035441875457764, 0.050729554146528244, -0.038191866129636765, 0.038737956434488297, 0.015768116340041161, 0.055979028344154358, 0.028033090755343437, 0.019432792440056801, 0.031476520001888275, 0.10286976397037506, -0.037049833685159683, -0.032807551324367523, -0.01439413707703352, -0.089553855359554291, 0.008868025615811348, 0.045914400368928909, 0.023231886327266693, -0.06557290256023407, -0.017068454995751381, -0.055507350713014603, -0.0026980997063219547, 0.0072547728195786476, 0.064455591142177582, -0.11562275886535645, 0.015381292439997196, 0.010897468775510788, -0.057973656803369522, -0.044768672436475754, -0.014847916550934315, -0.035113010555505753, 0.022552594542503357, 0.028930161148309708, -0.094622246921062469, 0.047843232750892639, -0.081955946981906891, -0.078254759311676025, -0.050215117633342743, -0.097233250737190247, 0.0026282127946615219, 0.01302764005959034, 0.051849290728569031, 0.010842334479093552, 0.024904908612370491, -0.005148665513843298, 0.076626427471637726, 0.17157919704914093, -0.017571048811078072, 0.067118868231773376, 0.02593083493411541, 0.0090135857462882996, 0.025578876957297325, 0.070817306637763977, 0.06513659656047821, 0.043056793510913849, 0.025007339194417, -0.076824381947517395, 0.018877711147069931, 0.046976465731859207, 0.076446019113063812, 0.083444386720657349, 0.059403002262115479, 0.025525866076350212, -0.11390912532806396, 0.026824582368135452, -0.0039274869486689568, 0.046050716191530228, 0.010614302940666676, 0.1194947138428688, 0.025479041039943695, 0.034874275326728821, 0.046799544245004654, 0.11482961475849152, 0.030811263248324394, -0.070852667093276978, 0.040026530623435974, 0.069173544645309448, 0.0048858551308512688, -0.01401282474398613, 0.047498200088739395, 0.039417307823896408, -0.0065596695058047771, 0.051918156445026398, 0.0087325526401400566, 0.044080276042222977, -0.1214546263217926, -0.086681462824344635, -0.15472136437892914, -0.063072085380554199, 0.030888468027114868, 0.018118014559149742, 0.071810528635978699, 0.082873567938804626, -0.036958295851945877, 0.088579714298248291, 0.045543238520622253, 0.030940946191549301, 0.028098724782466888, -0.033439837396144867, -0.059768054634332657, -0.10697995871305466, -0.061476733535528183, -0.082280099391937256, -0.0046661077067255974, -0.030044436454772949, -0.0059260027483105659, -0.069909259676933289, 0.034727025777101517, -0.081573456525802612, -0.025417663156986237, 0.005684257484972477, 0.054803352802991867, -0.00044783559860661626, -0.036447998136281967, 0.097248300909996033, -0.045429151505231857, 0.083136118948459625, 0.11076570302248001, 0.062548823654651642, -0.034846577793359756, 0.0062094046734273434, 0.012735655531287193, 0.091184645891189575, 0.0018474026583135128, -0.026263227686285973, 0.055734455585479736, -0.027467180043458939, 0.013210113160312176, -0.07310282438993454, 0.027705581858754158, 0.10425493866205215, 0.091113865375518799, 0.078234441578388214, -0.020600812509655952, 0.069123856723308563, -0.0027530691586434841, 0.0026091469917446375, -0.063201203942298889, 0.0016153146279975772, 0.094728745520114899, -0.023551261052489281, -0.059898052364587784, -0.0026379181072115898, -0.029111811891198158, 0.019885040819644928, -0.050185058265924454, 0.011684251017868519, 0.10838258266448975, -0.017930390313267708, 0.040992908179759979, 0.090962283313274384, 0.037843767553567886, -0.0082646710798144341, -0.076116792857646942, 0.054674357175827026, 0.043980825692415237, -0.041517052799463272, -0.0058607771061360836, -0.048409529030323029, -0.078408181667327881, -0.069449670612812042, -0.055291566997766495, 0.052124980837106705, -0.043203935027122498, 0.044106803834438324, -0.045717783272266388, 0.038428474217653275, 0.00091429060557857156, -0.10476718842983246, 0.021322669461369514, -0.038817461580038071, 0.04836336150765419, 0.044034697115421295, -0.051233809441328049, -0.021932417526841164, -0.036528144031763077, 0.034308318048715591, 0.015219703316688538, -0.079610452055931091, -0.03787638247013092, 0.071023792028427124, 0.052791178226470947, 0.02325558103621006, 0.06555088609457016, -0.019267870113253593, -0.03362734243273735, -0.054175712168216705, 0.031196024268865585, 0.10099524259567261, 0.11381323635578156, 0.1244775801897049, 0.1363641768693924, 0.032491691410541534, 0.042518891394138336, -0.018269700929522514, 0.094596177339553833, -0.002691380912438035, 0.022180298343300819, 0.003733260789886117, -0.032332267612218857, 0.0099936490878462791, -0.061509191989898682, 0.015788208693265915, -0.020151171833276749, 0.041655473411083221, -0.056385058909654617, -0.019537484273314476, 0.023260336369276047, -0.026610001921653748, -0.018192056566476822, 0.10671059787273407, 0.014144677668809891, 0.13878175616264343, 0.0048329965211451054, 0.0078134099021553993, -0.00022190998424775898, -0.00010122939420398325, 0.071005254983901978, -0.012644803151488304, -0.0068021626211702824, -0.036212839186191559, -0.037729579955339432, -0.10468696057796478, -0.044242791831493378, -0.019827570766210556, -0.031732466071844101, -0.0025729462504386902, 0.050357390195131302, -0.065200798213481903, -0.091091074049472809, 0.060755416750907898, -0.11340193450450897, -0.048515390604734421, -0.031353939324617386, -0.062377046793699265, -0.12325865775346756, -0.11582721024751663, -0.046184804290533066, -0.029965866357088089, 0.017325596883893013, -0.04605397954583168, -0.065289363265037537, -0.045533746480941772, -0.002424570731818676, -0.045772258192300797, -0.016330067068338394, 0.011240755207836628, -0.052830494940280914, 0.088631130754947662, -0.019325828179717064, -0.0365171879529953, 0.10466388612985611, 0.017129633575677872, 0.081372037529945374, -0.031320985406637192, 0.078427247703075409, -0.022043550387024879, -0.057194113731384277, 0.0095537304878234863, 0.093826405704021454, -0.0012843821896240115, -0.029613854363560677, 0.07390623539686203, 0.011203490197658539, 
  -0.093940041959285736, -0.094399921596050262, 0.068564146757125854, -0.016617553308606148, -0.056097544729709625, 0.010234727524220943, 0.022442026063799858, 0.021887689828872681, 0.025325994938611984, 0.05375182256102562, -0.073820911347866058, 0.05602138489484787, 0.030636712908744812, 0.0062932949513196945, 0.062017139047384262, -0.0028211942408233881, 0.11276530474424362, 0.10458682477474213, 0.13025882840156555, 0.0032108405139297247, 0.037706371396780014, 0.044889897108078003, 0.12079598009586334, 0.0022340579889714718, 0.059520501643419266, 0.058157484978437424, -0.040001425892114639, 0.023186655715107918, -0.039607886224985123, -0.058838129043579102, 0.019688908010721207, 0.072992391884326935, 0.1234576627612114, 0.11739882826805115, 0.097480706870555878, 0.0092009585350751877, -0.054026864469051361, 0.007666795514523983, 0.02630007266998291, -0.0089561305940151215, 0.025968289002776146, -0.020083947107195854, 0.067240975797176361, 0.057091955095529556, 0.072619959712028503, -0.012782949954271317, 0.058727722615003586, -0.058348126709461212, 0.017139239236712456, -0.012091529555618763, -0.085360385477542877, -0.013079507276415825, 0.001578850788064301, -0.050695646554231644, -0.012825632467865944, -0.051615525037050247, -0.03700503334403038, 0.087684579193592072, 0.074722528457641602, -0.063924282789230347, -0.0097744222730398178, 0.079635068774223328, -0.0068081943318247795, -0.0038667677436023951, -0.0074060210026800632, 0.042440664023160934, 0.11103101819753647, -0.042915638536214828, 0.029727425426244736, 0.0120301628485322, 0.050460826605558395, -0.074089594185352325, 0.071494117379188538, 0.025734029710292816, 0.032607514411211014, 0.079402320086956024, -0.032602597028017044, -0.06909991055727005, -0.019090339541435242, 0.092960812151432037, 0.0349409319460392, -0.023958228528499603, -0.026904230937361717, 0.015400493517518044, 0.089491203427314758, 0.087526366114616394, 0.036891002207994461, -0.014254763722419739, 0.10546906292438507, 0.057871975004673004, 0.099598132073879242, 0.096517786383628845, 0.15573811531066895, 0.066749714314937592, 0.026230474933981895, 0.067394405603408813, -0.020844079554080963, -0.057523485273122787, 0.024494435638189316, -0.033148303627967834, 0.072794146835803986, 0.1077130064368248, -0.0064389752224087715, -0.024334277957677841, -0.05450521782040596, 0.060429416596889496, 0.089038439095020294, -0.0058680395595729351, 0.071666255593299866, 0.00094790972070768476, -0.055138833820819855, -0.095279626548290253, 0.016163516789674759, -0.060952100902795792, -0.087853208184242249, 0.045209191739559174, -0.0039790491573512554, 0.0055077988654375076, -0.15897126495838165, -0.15309877693653107, -0.033575847744941711, -0.10331445187330246, -0.044383861124515533, -0.077985845506191254, -0.013534347526729107, -0.052192326635122299, -0.036140017211437225, 0.0101653216406703, -0.12765580415725708, 0.0085038468241691589, -0.073856867849826813, -0.053308263421058655, 0.035972736775875092, -0.059303533285856247, 0.013824379071593285, -0.010303277522325516, -0.10659408569335938, -0.061810661107301712, -0.028413105756044388, 0.0465562604367733, -0.12330742925405502, -0.013550790958106518, -0.086623646318912506, -0.082620806992053986, -0.0012859001290053129, 0.036043442785739899, -0.0089179817587137222, -0.046573717147111893, -0.092450655996799469, -0.054654516279697418, -0.041009910404682159, -0.040224306285381317, -0.017745640128850937, -0.014828285202383995, -0.020320801064372063, 0.051646336913108826, 0.0564250648021698, 0.086127668619155884, -0.065005779266357422, -0.077290631830692291, -0.098932214081287384, -0.051894541829824448, 0.035718012601137161, -0.055332690477371216, -0.083092376589775085, -0.024758901447057724, -0.067862771451473236, -0.0054036513902246952, -0.055935554206371307, -0.024215949699282646, -0.028059495612978935, -0.06581435352563858, 0.026045890524983406, -0.021525435149669647, 0.063848577439785004, 0.14910073578357697, 0.087090745568275452, -0.025809569284319878, -0.054576169699430466, -0.051267798990011215, -0.068139322102069855, 0.017482390627264977, 0.048192832618951797, 0.049895524978637695, -0.02639983594417572, 0.070747777819633484, 0.014979414641857147, 0.018243225291371346, 0.084052793681621552, 0.079394571483135223, 0.06944342702627182, 0.057623255997896194, 0.08784707635641098, 0.064360663294792175, -0.038821127265691757, 0.0035719252191483974, -0.014606230892241001, -0.013084791600704193, -0.074219606816768646, 0.059372678399085999, 0.081370003521442413, -0.018777668476104736, -0.038909308612346649, 0.031592834740877151, -0.05793297290802002, 0.002631830982863903, 0.028697136789560318, 0.091222874820232391, 0.063429921865463257, 0.094199270009994507, -0.012760614976286888, -0.02420957013964653, -0.022508686408400536, -0.02620384469628334, -0.066742345690727234, 0.034905117005109787, 0.086076363921165466, 0.079177170991897583, 0.040581319481134415, -0.062436230480670929, -0.077624283730983734, -0.088142953813076019, 0.0019214118365198374, -0.063055209815502167, 0.0067334305495023727, 0.044479567557573318, -0.041548751294612885, -0.029943911358714104, -0.062047220766544342, -0.094300754368305206, 0.064770855009555817, 0.057361554354429245, 0.079741202294826508, 0.038769718259572983, -0.087058447301387787, -0.11403363198041916, -0.025773309171199799, -0.015837380662560463, -0.017722150310873985, -0.034522339701652527, -0.11011555790901184, 0.057389751076698303, 0.036069955676794052, 0.091507047414779663, -0.057083867490291595, -0.065818995237350464, -0.030963331460952759, -0.096237055957317352, 0.011399990878999233, 0.046541247516870499, -0.010083910077810287, -0.11028717458248138, -0.054937127977609634, 0.011490371078252792, 0.088921748101711273, 0.036875806748867035, -0.015115739777684212, -0.011266929097473621, -0.053260762244462967, 0.05476853996515274, -0.10330693423748016, -0.039278507232666016, 0.047322545200586319, -0.076991401612758636, 0.05300438404083252, -0.025305142626166344, -0.067314460873603821, -0.0030624105129390955, 0.084894850850105286, -0.061404332518577576, -0.036853250116109848, -0.016148883849382401, 0.057881183922290802, 0.036117486655712128, 0.10156035423278809, -0.071995705366134644, 0.083684191107749939, 0.039312954992055893, 0.044496838003396988, -0.013486694544553757, -0.057424880564212799, -0.046972900629043579, 0.030392024666070938, 0.11106432229280472, 0.060583885759115219, 0.0043925223872065544, 0.085705995559692383, -0.080395117402076721, 0.083071544766426086, -0.051048398017883301, 0.075445584952831268, 0.011534319259226322, -0.008271518163383007, 0.066849716007709503, 0.015932695940136909, 0.023429341614246368, 0.0059524839743971825, -0.0092260036617517471, 0.014812387526035309, -0.028452144935727119, 0.11673664301633835, 0.076818130910396576, 0.011037856340408325, -0.01682463102042675, 0.0095056844875216484, -0.0025213875342160463, -0.050852850079536438, -0.018330151215195656, -0.089946351945400238, 0.012429927475750446, -0.015080397017300129, 0.012557379901409149, -0.010980532504618168, -0.074943453073501587, 0.11308344453573227, 0.009761386550962925, 0.058772135525941849, 0.049050338566303253, 0.0034230523742735386, 0.029509562999010086, 0.053499378263950348, 0.16652959585189819, 0.070027202367782593, -0.089919306337833405, 0.032802507281303406, -0.034069862216711044, 0.047977708280086517, -0.0097501743584871292, 0.070207037031650543, 0.035425584763288498, -0.0020491061732172966, 0.030586544424295425, 0.024300266057252884, 0.12280392646789551, 0.10572756081819534, 0.10789256542921066, -0.0028802226297557354, 0.052722424268722534, 0.11792474240064621, -0.052580539137125015, 0.087716959416866302, 0.089709088206291199, 0.032436627894639969, 0.068345002830028534, 0.11735542863607407, 0.093872390687465668, 0.0049661365337669849, -0.072394773364067078, -0.061100147664546967, 0.02235027588903904, 0.19859620928764343, 0.055929172784090042, 0.020994320511817932, -0.027692597359418869, 0.034347843378782272, -0.025838648900389671, -0.036539934575557709, -0.079727545380592346, -0.092928521335124969, -0.037689507007598877, -0.01147680077701807, 0.039983492344617844, 0.11179124563932419, 0.05926116555929184, -0.014656481333076954, 0.1477360725402832, 0.031849879771471024, 0.12007656693458557, -0.073379196226596832, -0.0078221745789051056, -0.0094684697687625885, 0.030542310327291489, 0.08899245411157608, 0.12358344346284866, 0.038961630314588547, 0.079029053449630737, -0.036325421184301376, -0.0075193848460912704, 0.11872708052396774, 0.10435454547405243, 0.028677461668848991, 0.11710993945598602, 0.023248929530382156, 0.14365912973880768, 0.069663971662521362, 0.002382652135565877, 0.018479198217391968, -0.043487813323736191, -0.078175470232963562, 0.090404056012630463, 0.014886466786265373, 0.038904584944248199, 0.037394847720861435, -0.043385431170463562, 0.089829586446285248, 0.0069554164074361324, 0.089410506188869476, 0.10094935446977615, 0.00061998114688321948, -0.052908472716808319, 0.038184404373168945, 0.020633760839700699, -0.037793483585119247, 0.039863571524620056, 0.049477539956569672, 0.049025267362594604, -0.019851809367537498, 0.029116906225681305, 0.0096351243555545807, -0.010098296217620373, 0.073641330003738403, -0.066236704587936401, -0.075487576425075531, 0.093265369534492493, -0.071237854659557343, -0.053523816168308258, -0.020377025008201599, -0.028251700103282928, -0.014696139842271805, 0.0016847939696162939, -0.041395746171474457, 0.039569195359945297, 0.05407550185918808, -0.098683089017868042, 0.0033616009168326855, -0.076763324439525604, -0.07476159930229187, 0.043387815356254578, 0.047471199184656143, -0.028386771678924561, 0.021775290369987488, -0.073825336992740631, -0.062341384589672089, -0.052730493247509003, 0.035749524831771851, -0.079061746597290039, 0.074287839233875275, 0.0076768933795392513, 0.11381300538778305, 0.077234350144863129, 0.010670829564332962, -0.081159740686416626, -0.039645366370677948, 0.089323945343494415, 0.037916664034128189, -0.0011944604339078069, 0.011236106976866722, 0.028775531798601151, 0.0042925574816763401, 0.056610565632581711, 0.011372417211532593, -0.010710475966334343, 0.040875967592000961, -0.10045465081930161, 0.027161048725247383, 0.083044230937957764, 0.021895788609981537, 0.062773041427135468, 0.065556727349758148, 0.053533080965280533, 0.028338760137557983, 0.013411781750619411, 0.029395481571555138, 0.086867853999137878, 0.027402026578783989, -0.034478489309549332, -0.0099934739992022514, 0.093898802995681763, 0.068831972777843475, -0.090339459478855133, -0.097379006445407867, 0.023629173636436462, -0.0020426970440894365, 0.071212828159332275, -0.096384711563587189, 0.049123946577310562, 0.043840419501066208, -0.044400755316019058, -0.025403814390301704, 0.023692268878221512, 0.00026085923309437931, -0.07961670309305191, -0.029242716729640961, -0.0688023641705513, -0.0050026113167405128, -0.058950386941432953, -0.15386481583118439, -0.041764654219150543, -0.069289699196815491, 0.021126838400959969, -0.079545028507709503, -0.044414997100830078, 0.036320757120847702, -0.0629115030169487, -0.10120938718318939, -0.029527528211474419, 0.043860968202352524, 0.0093850418925285339, -0.10773416608572006, -0.04677269235253334, -0.095563434064388275, 0.0068726413883268833, -0.020338136702775955, -0.0084110768511891365, -0.0037912239786237478, 0.054690539836883545, 0.077504478394985199, 0.12769477069377899, -0.023790124803781509, 0.019690029323101044, -0.099044919013977051, 0.055460531264543533, -0.0063269622623920441, 0.072801917791366577, 0.067738257348537445, 0.047466948628425598, 0.025870963931083679, 0.051515866070985794, -0.063827939331531525, 0.077780790627002716, 0.057801034301519394, -0.13661380112171173, 0.014664647169411182, -0.05761294811964035, -0.07735878974199295, -0.076236225664615631, 0.027569884434342384, 0.064315259456634521, -0.058091528713703156, 0.074402026832103729, 0.0093331495299935341, -0.056118994951248169, 0.055532712489366531, -0.006833955179899931, -0.023412473499774933, 0.0059205503202974796, -0.064811371266841888, 0.0037272146437317133, -0.056717492640018463, 0.0089307846501469612, 0.023630088195204735, 0.038697570562362671, -0.036514852195978165, 0.13696832954883575, -0.085924401879310608, 0.088577412068843842, -0.059375140815973282, -0.051907043904066086, 0.081579111516475677, -0.024180790409445763, 0.01245756633579731, -0.15118618309497833, -0.17077359557151794, -0.01891738548874855, 0.029629550874233246, 0.045415677130222321, -0.048154029995203018, 0.060687709599733353, -0.023206871002912521, 0.023920020088553429, -0.03915877640247345, 0.10180924087762833, 0.0034136979375034571, -0.021752219647169113, -0.031758774071931839, 0.021509071812033653, 0.063583202660083771, 0.14102545380592346, -0.032041583210229874, 0.026154469698667526, 0.091393180191516876, -0.025596644729375839, 0.065946556627750397, 0.045118898153305054, 0.075811058282852173, 0.015537340193986893, 0.048141352832317352, 0.09999789297580719, 0.10056542605161667, 0.12572610378265381, 0.12003416568040848, -0.041133496910333633, -0.044134154915809631, -0.052365388721227646, 0.10140453279018402, 0.098921090364456177, -0.039559494704008102, -0.030408093705773354, -0.030637150630354881, -0.040421813726425171, 0.015660161152482033, -0.057361572980880737, -0.062102627009153366, 0.05552961677312851, 0.093843609094619751, 0.096312098205089569, 0.029205380007624626, -0.053113516420125961, -0.0512741319835186, -0.030640596523880959, 0.055564764887094498, 0.080308832228183746, -0.0058933128602802753, 0.10735031217336655, -0.017687400802969933, 0.055507849901914597, 0.12400644272565842, 0.0070301853120326996, -0.085322111845016479, -0.025552403181791306, 0.11557220667600632, 0.06363985687494278, 0.024298679083585739, -0.032739624381065369, 0.032025132328271866, -0.013516050763428211, -0.018504219129681587, 0.035846825689077377, 0.13627704977989197, -0.047860145568847656, -0.082235313951969147, -0.068322911858558655, -0.0047658244147896767, -0.08548322319984436, -0.062748223543167114, 0.023428425192832947, -0.0098728267475962639, -0.022029917687177658, -0.14846974611282349, 0.038931265473365784, -0.080833695828914642, -0.070162184536457062, -0.024773882701992989, -0.19451595842838287, -0.01607227697968483, -0.056032940745353699, 0.00092059141024947166, 0.049165386706590652, -0.097078695893287659, 0.043187830597162247, -0.005820155143737793, -0.083272673189640045, 0.057192649692296982, -0.086786247789859772, -0.077426277101039886, -0.058926910161972046, 0.013950631953775883, -0.088450558483600616, 0.002656800439581275, -0.15866900980472565, 0.015004404820501804, -0.0095022860914468765, -0.022260235622525215, -0.10380420833826065, -0.074505582451820374, -0.03516843169927597, -0.027696549892425537, -0.19426718354225159, -0.021254725754261017, -0.15685473382472992, -0.084045305848121643, -0.15221276879310608, 0.031159214675426483, 0.0022167328279465437, 0.082346752285957336, 0.016681291162967682, -0.01034119538962841, 0.003100913017988205, -0.011803742498159409, 0.013607214204967022, 0.074699372053146362, -0.0047204778529703617, 0.10431037843227386, 0.055108834058046341, -0.026510097086429596, 0.1408907026052475, -0.00047573348274454474, 0.030417930334806442, 0.083588927984237671, -0.02778947725892067, -0.031200867146253586, 0.0032989780884236097, -0.037630133330821991, -0.0047754342667758465, 0.028514260426163673, 0.099261939525604248, -0.039004847407341003, 0.11000639945268631, 0.027571972459554672, 0.026566483080387115, 0.077094763517379761, 0.11228836327791214, 0.11074377596378326, 0.039880432188510895, -0.013421612791717052, -0.13871924579143524, -0.12238806486129761, -0.0042999773286283016, 0.0045160790905356407, 0.0098029943183064461, -0.02645137719810009, 0.032028108835220337, 0.024185528978705406, -0.028317363932728767, 0.035341005772352219, -0.061546653509140015, 0.049251113086938858, 0.042575571686029434, 0.050114206969738007, 0.060601122677326202, -0.0075733154080808163, -0.11780111491680145, 0.02230217307806015, 0.026898324489593506, 0.044170800596475601, 0.0050868024118244648, -0.049896165728569031, 0.025917919352650642, 0.044523503631353378, -0.065704680979251862, -0.014894134365022182, -0.015562243759632111, -0.038102511316537857, -0.027057131752371788, -0.024025147780776024, 0.0038128513842821121, -0.001776800025254488, 0.032924816012382507, -0.0028627852443605661, 0.049586605280637741, -0.045152846723794937, 0.068574137985706329, 0.056253597140312195, 0.053444486111402512, 0.027723221108317375, -0.0028363883029669523, 0.067042447626590729, 0.0080455411225557327, 0.031155519187450409, -0.0029033012688159943, 0.048133276402950287, 0.15139450132846832, -0.055630747228860855, -0.019385915249586105, 0.1655830591917038, 0.031231673434376717, 0.086837619543075562, -0.0043260348029434681, 0.12210904806852341, 0.0020245346240699291, -0.0081636616960167885, 0.062611974775791168, 0.034377787262201309, 0.0054174978286027908, 0.078581511974334717, 0.035132560878992081, -0.047647938132286072, 0.1233086958527565, 0.0049892454408109188, -0.019436273723840714, -0.0084824729710817337, 0.12262192368507385, 0.069269105792045593, 0.10317151248455048, -0.033293355256319046, 0.13181363046169281, -0.043143071234226227, -0.086301170289516449, -0.0425119549036026, 0.11639931797981262, -0.048625916242599487, -0.059492621570825577, -0.05260968953371048, 0.099648132920265198, -0.004399850033223629, -0.021182704716920853, 0.09391532838344574, 0.077392473816871643, 0.11124713718891144, 0.074520617723464966, -0.055574126541614532, 0.0089695360511541367, 0.01200840063393116, 
  0.02232074923813343, -0.024747598916292191, -0.013287428766489029, -0.049832060933113098, 0.049384184181690216, -0.011584368534386158, 0.053613964468240738, 0.038436789065599442, 0.023956956341862679, 0.0046973675489425659, -0.10992931574583054, -0.028387928381562233, -0.087645061314105988, -0.049749862402677536, -0.088264517486095428, -0.027429599314928055, -0.1006908193230629, -0.02211674302816391, -0.13490572571754456, -0.023176288232207298, 0.011738759465515614, -0.22776661813259125, -0.075231067836284637, -0.14655065536499023, -0.027947412803769112, -0.052130080759525299, 0.061207756400108337, -0.01285290252417326, -0.13342072069644928, -0.075109846889972687, -0.026860620826482773, 0.013548402115702629, 0.04003467783331871, -0.068914465606212616, -0.019752589985728264, 0.02644595131278038, -0.053822807967662811, -0.0013768094358965755, 0.033544775098562241, -0.088692657649517059, 0.097788885235786438, 0.076801300048828125, -0.037505995482206345, 0.019182808697223663, 0.0028702579438686371, 0.0015160342445597053, -0.028956685215234756, -0.036230791360139847, 0.062530681490898132, -0.02398768812417984, 0.089103266596794128, -0.024959126487374306, 0.056135307997465134, 0.067826509475708008, 0.043443381786346436, -0.026677720248699188, 0.061125487089157104, 0.059172950685024261, 0.07381054013967514, 0.011401073075830936, 0.16418658196926117, 0.014520386233925819, 0.0011180066503584385, 0.050342846661806107, 0.0072168284095823765, 0.11116679012775421, 0.017737211659550667, -0.09664163738489151, -0.018844775855541229, -0.029650624841451645, 0.0096845598891377449, -0.037956014275550842, -0.012463126331567764, 0.041438326239585876, -0.057305041700601578, -0.030580161139369011, 0.0026011609006673098, 0.055257737636566162, -0.01750217005610466, -0.069330841302871704, 0.0020078732632100582, -0.042645484209060669, 0.02627098374068737, 0.046887572854757309, 0.024161987006664276, -0.021739587187767029, -0.013110185973346233, -0.045282389968633652, -0.058682188391685486, 0.00537122692912817, -0.084306903183460236, 0.085403069853782654, -0.026414288207888603, -0.08521367609500885, 0.086596094071865082, 0.075127318501472473, 0.090704411268234253, 0.060320351272821426, 0.021815035492181778, 0.019578913226723671, -0.10393119603395462, -0.064942590892314911, -0.036202426999807358, 0.027815574780106544, 0.1049581840634346, 0.0092011652886867523, 0.095763050019741058, 0.062151387333869934, -0.019285086542367935, -0.019860262051224709, -0.010763505473732948, 0.091103255748748779, 0.056817624717950821, -0.05347726121544838, -0.00026075413916260004, -0.072753049433231354, 0.025175575166940689, 0.10161726921796799, 0.0018274792237207294, 0.10311652719974518, 0.0017780670896172523, 0.11705999821424484, 0.13748662173748016, -0.06132049486041069, 0.087597392499446869, 0.095045886933803558, 0.042415883392095566, 0.074251636862754822, -0.053445909172296524, 0.017226021736860275, 0.061376884579658508, -0.036062680184841156, 0.040080487728118896, 0.088943883776664734, 0.10316607356071472, 0.057182349264621735, 0.0068326611071825027, 0.14016759395599365, 0.090878866612911224, 0.031605444848537445, -0.039059784263372421, 0.074482239782810211, 0.060558795928955078, 0.081431157886981964, -0.066997379064559937, 0.018827980384230614, -0.0959620401263237, -0.024015499278903008, -0.029406458139419556, 0.047348480671644211, 0.071784622967243195, -0.059136588126420975, -0.078073516488075256, -0.019127437844872475, 0.058905366808176041, 0.066515438258647919, 0.043151523917913437, -0.015797056257724762, 0.10371351987123489, -0.0359840989112854, 0.029985168948769569, 0.060335937887430191, 0.022046629339456558, 0.097931407392024994, -0.041254349052906036, -0.075463332235813141, -0.094887085258960724, -0.073764339089393616, -0.046515591442584991, -0.034833993762731552, -0.045579176396131516, -0.010087503120303154, -0.033895786851644516, -0.085234344005584717, -0.037705309689044952, 0.040711350739002228, 0.066865317523479462, -0.048386022448539734, -0.046935826539993286, -0.10218849778175354, 0.029747292399406433, -0.077844008803367615, -0.028360486030578613, 0.071256324648857117, -0.054025579243898392, -0.019551925361156464, 0.025529872626066208, -0.043572124093770981, -0.00091008923482149839, -0.078738555312156677, -0.014616777189075947, -0.0054203798063099384, -0.044661369174718857, 0.071800120174884796, 0.025400541722774506, -0.054086215794086456, 0.021233316510915756, -0.095380179584026337, -0.071879372000694275, -0.010000751353800297, 0.071177773177623749, -0.0016942978836596012, 0.005680606234818697, -0.029917297884821892, -0.090658701956272125, -0.10180223733186722, 0.0049526253715157509, 0.020075274631381035, -0.073769882321357727, 0.044574983417987823, 0.03400198370218277, -0.05598767101764679, -0.0031974564772099257, -0.0024232133291661739, 0.091363415122032166, 0.023124709725379944, -0.10653357207775116, 0.02647838182747364, 0.074733927845954895, -0.017175361514091492, 0.011158154346048832, -0.0035118628293275833, 0.021925719454884529, -0.020055599510669708, -0.013677061535418034, 0.0089752022176980972, 0.0047529153525829315, -0.084450893104076385, -0.072982043027877808, 0.0025065953377634287, -0.030196834355592728, 0.028146285563707352, -0.013923167251050472, -0.015855349600315094, 0.099294468760490417, 0.0073518101125955582, 0.033286590129137039, 0.0075833653099834919, 0.038438782095909119, -0.020536664873361588, -0.0082838544622063637, 0.080801211297512054, -0.060906201601028442, -0.047496464103460312, 0.018595602363348007, -0.058260515332221985, -0.044666443020105362, -0.014597142115235329, 0.065410353243350983, -0.013460464775562286, 0.063843868672847748, 0.016615357249975204, 0.032282568514347076, -0.071673981845378876, 0.018154710531234741, -0.043945681303739548, -0.084680654108524323, 0.03068186342716217, -0.12100869417190552, -0.081599578261375427, 0.065455988049507141, -0.055031754076480865, -0.076938986778259277, -0.044458519667387009, -0.050529822707176208, 0.035455074161291122, 0.12389010936021805, 0.00080624379916116595, 0.043685209006071091, 0.061960905790328979, 0.12419898062944412, 0.098902150988578796, 0.11503364145755768, 0.052559815347194672, 0.13036040961742401, 0.072214551270008087, 0.054788026958703995, 0.045449722558259964, 0.030422795563936234, 0.08551519364118576, 0.13512814044952393, 0.05071764811873436, 0.00043478002771735191, 0.063662350177764893, -0.026746137067675591, 0.037218295037746429, 0.10798083245754242, 0.018431233242154121, 0.12372516840696335, -0.077486366033554077, -0.0098749082535505295, -0.054548546671867371, 0.10326587408781052, 0.13468483090400696, 0.13195919990539551, 0.066851608455181122, 0.10989174991846085, -0.073244936764240265, 0.055421162396669388, -0.057426951825618744, 0.10360995680093765, 0.12519264221191406, 0.09882846474647522, -0.045383226126432419, -0.0028109271079301834, 0.0489635169506073, 0.062618650496006012, 0.013832072727382183, 0.12931755185127258, 0.04050859808921814, 0.011192614212632179, 0.14033004641532898, 0.060630828142166138, 0.10767247527837753, 0.16803210973739624, 0.048950694501399994, 0.15159633755683899, 0.05390443280339241, 0.029660468921065331, 0.12551760673522949, 0.012379142455756664, -0.021949794143438339, 0.04778246209025383, 0.076829567551612854, 0.090925626456737518, -7.8645607572980225e-06, -0.069103367626667023, 0.01660296693444252, -0.060489576309919357, 0.065285652875900269, 0.014754700474441051, 0.064298361539840698, 0.049913555383682251, -0.023719474673271179, 0.0038443761877715588, 0.066335566341876984, -0.07597910612821579, -0.041595976799726486, -0.04613950103521347, 0.03232187032699585, 0.1080351248383522, 0.079564735293388367, -0.017577230930328369, -0.038190450519323349, 0.094834901392459869, 0.054981924593448639, 0.064752176403999329, 0.017663398757576942, 0.080284938216209412, 0.034178141504526138, -0.027706200256943703, -0.036582451313734055, 0.04125354066491127, -0.03409823402762413, -0.0015590242110192776, 0.0051408135332167149, -0.054386746138334274, 0.034051071852445602, 0.058323048055171967, 0.022785946726799011, 0.017263021320104599, 0.010512503795325756, -0.012452206574380398, 0.061225187033414841, -0.01128730084747076, 0.088143244385719299, -0.0074457353912293911, 0.0053765964694321156, 0.039536051452159882, -0.041230902075767517, 0.02808404341340065, 0.0053132991306483746, -0.036491427570581436, -0.0090514505282044411, 0.017188260331749916, 0.0067093684338033199, -0.10253109782934189, -0.10946071892976761, -0.070826061069965363, 0.020927196368575096, 0.046560384333133698, -0.01337782759219408, -0.034577753394842148, 0.073459550738334656, -0.030073579400777817, -0.072750337421894073, -0.075995974242687225, -0.061829108744859695, 0.0085756182670593262, 0.035367526113986969, -0.062322866171598434, 0.041665423661470413, -0.054638434201478958, 0.033782046288251877, -0.044033259153366089, 0.069104231894016266, 0.074966773390769958, 0.014115991070866585, -0.053720146417617798, -0.046763379126787186, 0.089627929031848907, -0.052116613835096359, 0.080453276634216309, 0.071767039597034454, 0.060576688498258591, -0.051136262714862823, 0.055964846163988113, -0.0397971011698246, -0.024430811405181885, 0.028116509318351746, 0.024527821689844131, 0.1175374835729599, -0.03377518430352211, 0.045867644250392914, 0.048418045043945312, 0.016301117837429047, 0.01392858661711216, 0.044872447848320007, 0.030415937304496765, -0.026239894330501556, 0.069595217704772949, -0.037096157670021057, -0.034399323165416718, -0.01056420523673296, 0.05417444184422493, 0.0061639533378183842, 0.05129271000623703, -0.033067613840103149, -0.0079219555482268333, 0.048212941735982895, -0.00035895270411856472, -0.013792164623737335, 0.062088813632726669, -0.054961811751127243, 0.15680615603923798, 0.033908180892467499, 0.025223476812243462, -0.074655719101428986, 0.00015054779942147434, -0.021990539506077766, -0.051727868616580963, -0.010541630908846855, 0.067571237683296204, -0.0029815351590514183, 0.086905159056186676, 0.10564424097537994, -0.036745771765708923, -0.055675797164440155, -0.056597154587507248, 0.12335335463285446, -0.005828341469168663, -0.070032969117164612, -0.05142027884721756, 0.022751888260245323, -0.020677506923675537, -0.080443598330020905, 0.010854401625692844, 0.054991703480482101, -0.0041236295364797115, 0.057289294898509979, 0.082078978419303894, 0.0036490096244961023, -0.016408601775765419, -0.087714329361915588, -0.012279922142624855, 0.083708159625530243, 0.069128639996051788, 0.052576731890439987, 0.11089645326137543, 0.062977530062198639, 0.012173371389508247, 0.037164129316806793, -0.081454232335090637, -0.019600272178649902, -0.00092119991313666105, 0.026243126019835472, 0.052324209362268448, 0.036459848284721375, -0.034119181334972382, -0.06731879711151123, 0.0015012611402198672, -0.013818074017763138, 0.10944996774196625, 0.13104519248008728, 0.035529173910617828, 0.076771847903728485, 0.014563095755875111, 0.090984053909778595, 0.055004395544528961, -0.037017203867435455, 0.12508073449134827, 0.0086873508989810944, 0.071220435202121735, 0.12988434731960297, 0.10354450345039368, 0.11783015727996826, 0.10981620848178864, -0.02782553993165493, 0.13158078491687775, 0.086700938642024994, 0.055136073380708694, -0.052023455500602722, -0.071184493601322174, -0.012000670656561852, 0.0022841310128569603, -0.0023738155141472816, 0.088213421404361725, 0.076849170029163361, 0.03403032198548317, 0.0098738027736544609, 0.025858417153358459, -0.072098381817340851, 0.053379662334918976, 0.043502055108547211, 0.068877078592777252, -0.0095485160127282143, -0.039833582937717438, -0.047463752329349518, 0.05340508371591568, -0.041163433343172073, -0.01247318834066391, -0.05596943199634552, -0.0087164025753736496, -0.053522244095802307, 0.040844801813364029, -0.064618289470672607, 0.03022441454231739, 0.14748236536979675, 0.12269173562526703, 0.047180477529764175, -0.045552361756563187, 0.080020315945148468, 0.095693029463291168, 0.015152820385992527, 0.16498903930187225, 0.051593054085969925, 0.067816905677318573, -0.030773244798183441, 0.046776294708251953, 0.041993614286184311, 0.064691148698329926, 0.21083992719650269, 0.21365185081958771, 0.17718173563480377, 0.12031400203704834, 0.047246534377336502, 0.1282610148191452, 0.14359264075756073, 0.037622526288032532, 0.010460204444825649, -0.023661321029067039, 0.12180420756340027, -0.016116421669721603, -0.05310865119099617, 0.088677749037742615, -0.0034419763833284378, 0.13895536959171295, 0.061371650546789169, -0.018460126593708992, 0.057561594992876053, 0.00055859604617580771, -0.046915743499994278, -0.056875050067901611, -0.066791363060474396, 0.069587543606758118, -0.020366674289107323, 0.047268617898225784, 0.11546441912651062, 0.0054416111670434475, 0.082127690315246582, 0.03198009729385376, -0.0081150457262992859, 0.16846452653408051, 0.21245971322059631, -0.012676074169576168, -0.0097648454830050468, -0.15005300939083099, 0.00040057738078758121, -0.045427188277244568, 0.14203633368015289, 0.066806115210056305, -0.040841847658157349, 0.091627918183803558, 0.029367152601480484, -0.022319089621305466, 0.12652967870235443, 0.040766231715679169, 0.12682653963565826, -0.0012672314187511802, -0.046195469796657562, 0.012447780929505825, -0.057037953287363052, 0.04147571325302124, -0.015439609065651894, -0.046165958046913147, 0.16118371486663818, -0.030265336856245995, -0.023834703490138054, 0.014441978186368942, 0.074798792600631714, 0.026132913306355476, 0.0044255731627345085, 0.00057092192582786083, 0.054209057241678238, 0.089228138327598572, 0.021948469802737236, 0.12267828732728958, -0.064440511167049408, 0.086025968194007874, 0.00072028720751404762, 0.11719236522912979, 0.0011044366983696818, 0.098658084869384766, -0.028301002457737923, 0.16729322075843811, 0.056555390357971191, -0.014283386990427971, 0.053063984960317612, 0.10186295956373215, 0.0047978470101952553, 0.14299780130386353, 0.055548109114170074, -0.059594184160232544, 0.071989104151725769, 0.054401934146881104, 0.072744309902191162, 0.025841629132628441, -0.005243323277682066, -0.0032913992181420326, 0.093117289245128632, -0.043267402797937393, 0.063199087977409363, 0.079396486282348633, 0.036857772618532181, 0.045079704374074936, 0.040625341236591339, 0.07465779036283493, 0.087375447154045105, 0.0016687456518411636, 0.026066485792398453, 0.050431150943040848, 0.018095510080456734, -0.062200956046581268, 0.08813011646270752, 0.094720348715782166, -0.067278474569320679, -0.034155983477830887, -0.047906789928674698, 0.081028379499912262, -0.042947795242071152, -0.078067868947982788, 0.098803520202636719, 0.089549541473388672, -0.010614239610731602, 0.053962033241987228, 0.098229385912418365, 0.010786949656903744, 0.047401372343301773, -0.035309445112943649, -0.033627405762672424, -0.02179768867790699, -0.028106987476348877, 0.070960454642772675, 0.03958427906036377, -0.047114681452512741, -0.014646385796368122, -0.036157935857772827, -0.039007861167192459, 0.048561405390501022, 0.061938423663377762, -0.027392413467168808, 0.014328645542263985, 0.050547860562801361, -0.017012840136885643, 0.095200784504413605, 0.0363457091152668, -0.095871932804584503, -0.075075693428516388, 0.031467679888010025, 0.019897451624274254, -0.054356437176465988, -0.049710985273122787, 0.088047966361045837, -0.036516040563583374, 0.014236568473279476, -0.0041220737621188164, 0.021656924858689308, 0.0042878719978034496, -0.0065205194987356663, -0.090293347835540771, 0.049534924328327179, 0.042681023478507996, -0.02388354204595089, 0.055879700928926468, 0.068069390952587128, -0.10657471418380737, -0.12438733875751495, -0.022556856274604797, 0.039329539984464645, -0.087742432951927185, 0.018092375248670578, -0.001222000690177083, -0.015293159522116184, 0.05060209333896637, 0.015162519179284573, 0.028151584789156914, -0.025246730074286461, 0.013612979091703892, 0.018886702135205269, -0.018038105219602585, -0.020078511908650398, -0.023096203804016113, 0.059529617428779602, 0.016152055934071541, -0.015176250599324703, 0.051948104053735733, -0.01748984307050705, 0.018151385709643364, -0.037119988352060318, 0.041905231773853302, 0.074256531894207001, 0.057675369083881378, 0.038366146385669708, -0.032736599445343018, 0.095094174146652222, 0.11832248419523239, 0.066131502389907837, -0.042135175317525864, 0.02662350982427597, -0.048023190349340439, -0.08356022834777832, -0.070289663970470428, 0.013827322982251644, 0.029498694464564323, 0.043694149702787399, 0.050184227526187897, -0.023781657218933105, 0.022152820602059364, 0.071310706436634064, -0.064666450023651123, -0.094565361738204956, 0.020316332578659058, 0.033674899488687515, -0.024398570880293846, 0.045708250254392624, 0.027146182954311371, -0.025579202920198441, 0.036233849823474884, -0.040419161319732666, 0.005502721294760704, -0.030307497829198837, 0.021365400403738022, 0.058617409318685532, -0.060935415327548981, 0.034082803875207901, 0.0096686147153377533, -0.085062369704246521, -0.083465419709682465, -0.036868035793304443, -0.052066843956708908, -0.041843857616186142, -0.042363818734884262, 0.003656935878098011, 0.020402779802680016, 0.059298250824213028, 0.0089766979217529297, 0.052192416042089462, 0.020349565893411636, 0.041344247758388519, -0.065763883292675018, 0.032775994390249252, -0.016873441636562347, -0.073853954672813416, -0.046791628003120422, 0.038777928799390793, 0.016385471448302269, -0.029748827219009399, 0.090681426227092743, 0.087029770016670227, -0.03371870145201683, 0.015171149745583534, -0.029662180691957474, -0.095806866884231567, 
  -0.10349256545305252, 0.010830131359398365, 0.0094531867653131485, 0.052493955940008163, -0.0074061155319213867, 0.1314806342124939, 0.029215453192591667, 0.063691519200801849, 0.018872648477554321, -0.02055574394762516, 0.064503215253353119, 0.077125228941440582, 0.040180619806051254, -0.012128947302699089, 0.053637463599443436, -0.049397967755794525, -0.094376400113105774, -0.02123437263071537, 0.012311368249356747, 0.079602323472499847, -0.013651313260197639, -0.0065754055976867676, -0.053930673748254776, -0.010627408511936665, 0.1394893079996109, 0.11948861181735992, 0.00023040421365294605, 0.099727444350719452, 0.13728992640972137, 0.2101476639509201, 0.15354450047016144, 0.13559357821941376, 0.2285359650850296, 0.049046088010072708, 0.092739209532737732, 0.15950654447078705, 0.16735842823982239, 0.034120719879865646, 0.11972879618406296, 0.074876606464385986, 0.030349176377058029, 0.12283889204263687, 0.12377750128507614, 0.18076793849468231, 0.15499641001224518, 0.06472276896238327, 0.071046218276023865, 0.002642590319737792, 0.13675878942012787, 0.039869487285614014, 0.035589162260293961, -0.028581218793988228, -0.077678777277469635, -0.086711809039115906, -0.004915428813546896, -0.067988432943820953, 0.025580288842320442, -0.043355833739042282, -0.02546745166182518, -0.0077065741643309593, 0.10615029186010361, 0.039030902087688446, 0.096386484801769257, 0.123886339366436, -0.0233775544911623, 0.020798292011022568, 0.10549920797348022, -0.099631242454051971, -0.012844204902648926, -0.090296670794487, 0.077533595263957977, 0.022690832614898682, -0.025206403806805611, -0.051004916429519653, 0.0050242999568581581, 0.092119947075843811, 0.080005377531051636, 0.14392049610614777, 0.082141861319541931, 0.10853422433137894, 0.026233302429318428, 0.085613563656806946, 0.090226277709007263, 0.035431385040283203, -0.006401468999683857, -0.11102642863988876, 0.0280140470713377, -0.045531447976827621, 0.096398890018463135, 0.006727379746735096, 0.0072546517476439476, 0.048937585204839706, -0.077214017510414124, -0.018417408689856529, 0.094363361597061157, -0.015664992853999138, -0.029838943853974342, -0.023344924673438072, 0.12605127692222595, 0.020463733002543449, -0.033877849578857422, 0.036601465195417404, 0.059141997247934341, -0.03461751714348793, 0.041988514363765717, 0.048521235585212708, 0.058660604059696198, -0.034143410623073578, -0.069691523909568787, -0.021675404161214828, -0.10797715932130814, -0.026182223111391068, -0.0090162372216582298, 0.059665985405445099, 0.0076848575845360756, 0.10116899013519287, -0.10624253004789352, -0.074959926307201385, 0.011870840564370155, -0.021377746015787125, -0.15878495573997498, 0.0063434373587369919, -0.03490789607167244, -0.020077565684914589, -0.067591384053230286, 0.016578970476984978, -0.037081945687532425, -0.082764051854610443, -0.030862268060445786, -0.010390467010438442, -0.05205463245511055, -0.11393441259860992, -0.088663958013057709, -0.0051752696745097637, -0.045944046229124069, -0.069093719124794006, -0.071651436388492584, -0.024057578295469284, -0.071777127683162689, 0.02969646081328392, 0.046160854399204254, -0.010867046192288399, -0.071632511913776398, -0.11167202144861221, -0.074646174907684326, -0.022926157340407372, -0.091587021946907043, -0.097230881452560425, -0.045537885278463364, -0.080732837319374084, -0.035970460623502731, -0.093805305659770966, 0.0013885375810787082, -0.0097483377903699875, -0.12559862434864044, -0.015439637936651707, -0.023412715643644333, 0.040567319840192795, -0.043374355882406235, -0.10362391918897629, -0.046228848397731781, 0.011811350472271442, 0.028216315433382988, 0.091421477496623993, -0.054209847003221512, 0.023193351924419403, -0.070422820746898651, -0.10723826289176941, 0.034088414162397385, -0.027918407693505287, -0.054089397192001343, 0.014444645494222641, -0.0015088635263964534, -0.064199537038803101, 0.049673561006784439, 0.03522961214184761, 0.079942069947719574, 0.094119653105735779, 0.076461128890514374, -0.077579885721206665, -0.02452285960316658, 0.033570975065231323, 0.076223224401473999, 0.078709714114665985, -0.010439592413604259, -0.094209387898445129, -0.025086266919970512, 0.052557379007339478, 0.014961575157940388, -0.041167661547660828, -0.026808774098753929, -0.11781356483697891, -0.020500242710113525, -0.048936981707811356, 0.020538780838251114, 0.076567366719245911, -0.037057399749755859, -0.097399696707725525, -0.034235667437314987, 0.00655722850933671, -0.012074267491698265, 0.016048606485128403, -0.033309865742921829, -0.075076423585414886, -0.053391341120004654, -0.029156273230910301, -0.018679872155189514, 0.075170964002609253, 0.10702291131019592, 0.0020435824990272522, -0.048807937651872635, 0.086710542440414429, 0.034431245177984238, 0.0023708269000053406, 0.0038095368072390556, -0.050315964967012405, -0.090717732906341553, -0.026821136474609375, -0.10519169270992279, -0.034764807671308517, 0.068382434546947479, -0.004910807590931654, 0.065451756119728088, 0.023293284699320793, 0.14339093863964081, -0.048171862959861755, 0.097642011940479279, -0.036145482212305069, -0.021936856210231781, 0.040317807346582413, -0.024069748818874359, 0.11510973423719406, -0.03043392114341259, 0.097449354827404022, 0.017694363370537758, 0.074339479207992554, -0.050071269273757935, 0.014664680697023869, 0.052615795284509659, 0.078833512961864471, 0.010558439418673515, 0.019963599741458893, 0.07481846958398819, -0.083312541246414185, -0.096466429531574249, -0.035997889935970306, -0.036401160061359406, 0.033516544848680496, -0.098218217492103577, -0.038263723254203796, -0.065626591444015503, -0.00091596785932779312, -0.017685264348983765, -0.093288719654083252, -0.023771584033966064, -0.052758771926164627, -0.11693893373012543, 0.012901196256279945, 0.040348611772060394, -0.015783969312906265, -0.036901168525218964, -0.066411890089511871, 0.093439392745494843, 0.044150985777378082, -0.0711408331990242, -0.031878959387540817, 0.09263099730014801, -0.027763491496443748, -0.027217093855142593, -0.10479534417390823, 0.069151140749454498, 0.082131899893283844, 0.030405823141336441, -0.032052751630544662, -0.087872244417667389, -0.05497819185256958, 0.085858389735221863, 0.024263452738523483, 0.023839972913265228, 0.068746134638786316, 0.19904269278049469, 0.14868539571762085, 0.05204608291387558, 0.013178860768675804, 0.056807316839694977, 0.003207456786185503, 0.19223478436470032, 0.025355901569128036, -0.029997376725077629, -0.0030291664879769087, 0.090092368423938751, 0.088236384093761444, -0.056599996984004974, 0.051745813339948654, -0.005347441416233778, -0.071792013943195343, 0.025814501568675041, -0.13254988193511963, -0.049526739865541458, 0.040702208876609802, 0.026618598029017448, 0.03003554604947567, 0.064770326018333435, 0.011213875375688076, 0.042443156242370605, 0.039982356131076813, 0.0026085965801030397, -0.0074490695260465145, 0.058013588190078735, -0.039473574608564377, 0.0038234577514231205, 0.028152661398053169, 0.0051087075844407082, 0.025682011619210243, 0.070730060338973999, -0.024476166814565659, 0.087707385420799255, -0.043251484632492065, -0.14002569019794464, -0.15365606546401978, -0.091641180217266083, -0.069093532860279083, -0.080314315855503082, -0.11916917562484741, -0.070677667856216431, -0.14071071147918701, 0.02062251977622509, -0.074270591139793396, -0.093845628201961517, 0.03838251531124115, 0.055264372378587723, 0.021697074174880981, -0.001573786954395473, -0.049350026994943619, 0.030390543863177299, 0.095851577818393707, 0.019896809011697769, 0.075575307011604309, -0.002482416108250618, -0.012590809725224972, 0.0088403709232807159, -0.071060672402381897, -0.046407442539930344, 0.039098411798477173, 0.056987836956977844, 0.014093251898884773, -0.010293927043676376, -0.033407013863325119, -0.087146572768688202, -0.030108623206615448, 0.023798404261469841, -0.11367681622505188, -0.087305255234241486, -0.053664457052946091, 0.020691610872745514, 0.019372981041669846, -0.048263661563396454, -0.029544111341238022, -0.0025262683629989624, -0.014074242673814297, 0.11675367504358292, -0.0012222937075421214, -0.12406804412603378, -0.083625823259353638, -0.026413209736347198, 0.028580334037542343, 0.013803501613438129, -0.069432817399501801, -0.043746095150709152, 0.043051887303590775, -0.0078558372333645821, -0.015055542811751366, -0.008981761522591114, 0.069718874990940094, 0.070965059101581573, 0.013437640853226185, 0.01300839614123106, -0.043726075440645218, 0.010822868905961514, -0.048453696072101593, -0.061594925820827484, -0.040298581123352051, -0.090613745152950287, -0.071033678948879242, -0.019574385136365891, 0.008923887275159359, -0.10269550979137421, -0.028197132050991058, 0.045564588159322739, 0.057182997465133667, 0.026483464986085892, 0.012045650742948055, -0.034039467573165894, 0.058859363198280334, -0.10924912989139557, -0.0084343003109097481, 0.038922347128391266, -0.11530600488185883, 0.0044467695988714695, -0.078416794538497925, -0.039021864533424377, -0.037600178271532059, 0.074041858315467834, -0.016023078933358192, -0.037849299609661102, -0.12672339379787445, -0.088687591254711151, -0.048001650720834732, 0.023121751844882965, 0.011776288039982319, -0.0039270268753170967, -0.061565198004245758, 0.070713303983211517, -0.019260002300143242, 0.0069374097511172295, 0.019220810383558273, 0.0086511503905057907, -0.032978136092424393, 0.088346593081951141, -0.083684466779232025, -0.069326840341091156, 0.081352397799491882, -0.014159025624394417, 0.021960487589240074, 0.070661984384059906, -0.057688124477863312, 0.022686133161187172, 0.034116577357053757, -0.077491700649261475, -0.045741062611341476, -0.017748389393091202, -0.040070999413728714, 0.0085642552003264427, -0.015191176906228065, 0.083884336054325104, 0.075983874499797821, -0.05806373804807663, -0.10804770886898041, -0.10998960584402084, -0.038702666759490967, 0.022955048829317093, -0.082269594073295593, 0.0011047698790207505, -0.039045009762048721, 0.11348365247249603, -0.024692943319678307, 0.03112463653087616, 0.011770220473408699, -0.011727976612746716, 0.015874085947871208, 0.032192204147577286, -0.029175961390137672, 0.0028066998347640038, -0.015434880740940571, 0.052117206156253815, -0.029127666726708412, -0.059011641889810562, 0.034474983811378479, -0.08747650682926178, -0.026663577184081078, -0.052703488618135452, 0.013686597347259521, -0.095761902630329132, -0.020016491413116455, -0.0052177612669765949, -0.053223889321088791, -0.04756651446223259, -0.082467280328273773, 0.012686449103057384, 0.0057320278137922287, 0.0032763821072876453, 0.0259696114808321, -0.10941050201654434, -0.099101200699806213, 0.055911879986524582, -0.070369027554988861, 0.055582031607627869, 0.011242976412177086, 0.01850101538002491, 0.065895587205886841, -0.043825771659612656, -0.022630264982581139, -0.087932750582695007, -0.038190379738807678, -0.029196172952651978, -0.029844170436263084, -0.10876274108886719, 0.047516763210296631, -0.0037391490768641233, -0.042330089956521988, -0.067820973694324493, -0.040964271873235703, 0.052144661545753479, -0.035498674958944321, 0.059078332036733627, 0.051104258745908737, -0.041732966899871826, -0.065432079136371613, 0.057648342102766037, 0.017575489357113838, 0.015593871474266052, 0.062374066561460495, 0.050645444542169571, -0.11122630536556244, -0.12893538177013397, 0.019336855039000511, -0.058341328054666519, -0.0036459374241530895, -0.075250230729579926, 0.021070700138807297, 0.030511856079101562, 0.10513455420732498, -0.071146257221698761, -0.073670856654644012, 0.019902041181921959, 0.039787575602531433, -0.076954610645771027, -0.032129053026437759, 0.086783669888973236, -0.078031852841377258, -0.043882124125957489, 0.04037843644618988, 0.034552916884422302, 0.19990469515323639, 0.032447967678308487, 0.015545821748673916, -0.052844077348709106, 0.002975682495161891, -0.072365343570709229, -0.054107766598463058, -0.063732706010341644, -0.097961477935314178, -0.070437364280223846, 0.026106406003236771, -0.036375962197780609, -0.06480756402015686, 0.0036381096579134464, -0.18481996655464172, -0.095382548868656158, 0.0018893710803240538, -0.15472415089607239, -0.078661069273948669, -0.11908889561891556, 0.0062172021716833115, 0.080232828855514526, -0.03879464790225029, 0.0012228210689499974, 0.05512470006942749, 0.054028268903493881, 0.055800694972276688, 0.019212452694773674, -0.022489115595817566, 0.0044183200225234032, -0.037832584232091904, -0.017699947580695152, 0.091649577021598816, 0.012444782070815563, -0.067568540573120117, -0.1186583936214447, 0.042728729546070099, -0.084336437284946442, -0.055750954896211624, -0.057155773043632507, -0.031937900930643082, -0.047990452498197556, 0.049999985843896866, 0.05799759179353714, -0.023275051265954971, 0.023714646697044373, 0.0095752682536840439, -0.075481854379177094, 0.057093936949968338, -0.1072029247879982, -0.019219176843762398, 0.0089110573753714561, 0.033123772591352463, -0.10237091034650803, 0.058333475142717361, 0.12307465821504593, -0.089510075747966766, -0.058921083807945251, 0.017828328534960747, 0.1011054739356041, 0.11527867615222931, 0.075588464736938477, 0.058027517050504684, 0.063332878053188324, 0.06713152676820755, 0.10379916429519653, 0.016588598489761353, 0.040773969143629074, 0.068348348140716553, 0.016260068863630295, -0.085822023451328278, -0.022108161821961403, -0.0068148672580718994, 0.10221170634031296, 0.037446878850460052, -0.043077494949102402, 0.06246475875377655, 0.063339829444885254, -0.0016586834099143744, -0.00024863117141649127, 0.0096769807860255241, -0.074159823358058929, 0.032801307737827301, -0.013674390502274036, 0.064637608826160431, -0.038587495684623718, -0.079503796994686127, 0.065520942211151123, -0.081255532801151276, -0.037318143993616104, -0.025974614545702934, 0.03278462216258049, -0.012930220924317837, 0.036220606416463852, -0.11046650260686874, -0.0018994242418557405, -0.051477506756782532, -0.044068858027458191, -0.0065667619928717613, -0.095332570374011993, 0.028711695224046707, -0.059749297797679901, -0.10330313444137573, 0.042450867593288422, 0.044545706361532211, 0.030182676389813423, -0.08985254168510437, -0.040566764771938324, -0.11246825009584427, -0.12403353303670883, -0.080102346837520599, -0.0076593025587499142, 0.021987026557326317, -0.044608566910028458, 0.069845035672187805, -0.052249949425458908, -0.046403750777244568, -0.025655219331383705, -0.031319126486778259, 0.01396540179848671, 0.046863868832588196, -0.039138667285442352, -0.023971240967512131, 0.018162872642278671, -0.075136922299861908, -0.085418716073036194, -0.10514150559902191, 0.053679022938013077, -0.048713061958551407, 0.019305301830172539, -0.047036085277795792, 0.06011044979095459, -0.053222037851810455, -0.048592865467071533, 0.0020137529354542494, -0.044455252587795258, -0.079353302717208862, -0.046106699854135513, 0.028601851314306259, 0.060303427278995514, -0.082636415958404541, -0.015337013639509678, -0.079568818211555481, 0.039531607180833817, -0.035223394632339478, 0.037420567125082016, 0.0056458474136888981, 0.018889091908931732, -0.043966028839349747, 0.009936802089214325, -0.060679618269205093, 0.050573460757732391, 0.01363135501742363, -0.056942012161016464, -0.070489600300788879, -0.068729758262634277, 0.020649868994951248, -0.0523032546043396, -0.095774278044700623, -0.042516089975833893, 0.042992185801267624, -0.085261322557926178, -0.04116019606590271, 0.0078300153836607933, -0.082506969571113586, 0.058472584933042526, -0.14459019899368286, -0.016018183901906013, -0.12950266897678375, -0.097930543124675751, 0.015798071399331093, -0.034676272422075272, 0.050679493695497513, -0.057705163955688477, 0.034828171133995056, -0.044934917241334915, 0.010932230390608311, -0.054738365113735199, -0.061844371259212494, -0.058147870004177094, 0.013377226889133453, -0.15593573451042175, -0.052391942590475082, -0.042164284735918045, -0.019261680543422699, -0.072326570749282837, 0.066581845283508301, 0.047581054270267487, 0.00092443672474473715, 0.0049759875982999802, -0.069036997854709625, -0.070786774158477783, 0.0027899057604372501, 0.052022859454154968, -0.095265842974185944, 0.00024274890893138945, 0.032769855111837387, -0.037375632673501968, -0.020460376515984535, -0.015280089341104031, -0.097661688923835754, 0.035269524902105331, 0.026259612292051315, 0.021223081275820732, 0.051566522568464279, -0.0073649240657687187, 0.065003283321857452, 0.054127145558595657, -0.028428958728909492, -0.026145463809370995, 0.045517884194850922, -0.01980186440050602, -0.080946877598762512, -0.039775360375642776, 0.047582056373357773, -0.019086768850684166, 0.11447495222091675, -0.044180598109960556, -0.082681149244308472, 0.085464410483837128, -0.069147877395153046, 0.051194485276937485, -0.069151885807514191, -0.064900919795036316, -0.036808088421821594, 0.074574418365955353, -0.0080959228798747063, -0.10202041268348694, 0.10738195478916168, -0.11184150725603104, -0.030958056449890137, 0.030653798952698708, 0.015406839549541473, 0.033200711011886597, -0.11628341674804688, -0.03508739173412323, 0.016514759510755539, 0.038730386644601822, 0.054561275988817215, -0.00090236368123441935, -0.103531613945961, 0.039346661418676376, -0.069920189678668976, -0.032429590821266174, 0.012025520205497742, 0.020808035507798195, 0.0076192980632185936, 0.053755931556224823, -0.021762140095233917, 0.028143873438239098, 0.023618804290890694, -0.080637700855731964, 0.068238668143749237, -0.042361583560705185, -0.017479974776506424, 0.031163105741143227, -0.099978245794773102, -0.072769671678543091, -0.074371524155139923, 0.040267057716846466, 
  0.070053234696388245, 0.035813987255096436, 0.011622296646237373, -0.051527794450521469, -0.073955222964286804, -0.096073366701602936, 0.044716127216815948, -0.04698832705616951, -0.061343520879745483, 0.014058494009077549, -0.037616152316331863, 0.01133060734719038, -0.046475265175104141, -0.033434782177209854, -0.05463017150759697, 0.0447801873087883, 0.024628175422549248, 0.01918933168053627, -0.01401510089635849, -0.025784512981772423, 0.024226084351539612, 0.07301437109708786, -0.017589084804058075, 0.039759960025548935, 0.022264380007982254, 0.051833473145961761, 0.10841861367225647, 0.054599139839410782, -0.077667094767093658, -0.089212685823440552, 0.051562018692493439, -0.048949979245662689, 0.039932440966367722, -0.11415131390094757, -0.061692185699939728, -0.065019130706787109, -0.039261501282453537, -0.092314235866069794, 0.012826660647988319, 0.048558633774518967, 0.00046504550846293569, 0.027466746047139168, -0.045425150543451309, -0.018375325947999954, 0.042870312929153442, -0.07332310825586319, 0.064411506056785583, 0.026199076324701309, -0.056692976504564285, 0.016505293548107147, 0.038105785846710205, 0.026728382334113121, -0.10468217730522156, -0.049419689923524857, -0.031059574335813522, 0.042500268667936325, 0.0010706858010962605, 0.038953948765993118, 0.089013442397117615, 0.057313006371259689, -0.068131692707538605, -0.052613243460655212, 0.10378917306661606, 0.10074017196893692, 0.010460632853209972, 0.045699708163738251, -0.036641202867031097, 0.080062948167324066, -0.08572445809841156, -0.053788766264915466, -0.10399946570396423, -0.0014082404086366296, 0.046876899898052216, 0.039866100996732712, 0.054305307567119598, 0.038690369576215744, -0.054134100675582886, -0.042776141315698624, -0.057028550654649734, -0.05994708463549614, 0.050031106919050217, -0.092403478920459747, 0.043047450482845306, -0.05477079376578331, 0.014917157590389252, -0.061614852398633957, 0.022254245355725288, -0.065635137259960175, 0.041102457791566849, -0.02530442550778389, -0.025691673159599304, -0.0096667660400271416, 0.007208479568362236, 0.070564091205596924, 0.039558392018079758, 0.0073690656572580338, 0.0099641187116503716, -0.027314580976963043, -0.05905519425868988, -0.062614753842353821, -0.0080018835142254829, -0.031586766242980957, 0.069442443549633026, 0.020986560732126236, 0.10075221955776215, -0.055553805083036423, -0.085405908524990082, -0.0012343437410891056, -0.034420300275087357, 0.040646705776453018, -0.049036469310522079, -0.0033085665199905634, -0.034597795456647873, 0.0077341455034911633, 0.027313234284520149, -0.00020083200070075691, -0.042547747492790222, -0.0728110671043396, -0.065836548805236816, -0.0087182177230715752, 0.086101531982421875, -0.034514915198087692, -0.043715421110391617, 0.0039600078016519547, -0.058070752769708633, 0.030881324782967567, 0.11668609082698822, -0.019517136737704277, -0.010321148671209812, 0.059310045093297958, -0.021492190659046173, -0.0061128828674554825, 0.044472917914390564, 0.011509815230965614, 0.041244134306907654, 0.019339846447110176, 0.069824486970901489, 0.060632616281509399, -0.072371400892734528, 0.072708815336227417, 0.043551784008741379, 0.032930634915828705, 0.071281693875789642, 0.0241503044962883, 0.063446395099163055, -0.070731878280639648, 0.11234134435653687, 0.080196261405944824, -0.034376215189695358, -0.052192050963640213, 0.0055575799196958542, 0.047261081635951996, -0.01391727477312088, -0.023043561726808548, 0.060308396816253662, 0.11937262117862701, 0.091326579451560974, -0.041511479765176773, 0.0867747962474823, -0.042760163545608521, 0.00090039963833987713, 0.062776900827884674, -0.079634495079517365, -0.0056638568639755249, -0.067234702408313751, -0.049201961606740952, 0.013361198827624321, -0.029356272891163826, 0.09093206375837326, 0.0017338455654680729, 0.012264158576726913, -0.041538115590810776, -0.034305665642023087, 0.062430288642644882, 0.035221882164478302, 0.0018434087978675961, -0.031545352190732956, 0.0403268001973629, -0.023501424118876457, 0.028867257758975029, -0.02647068165242672, 0.016972025856375694, 0.030958963558077812, 0.024725999683141708, 0.036108538508415222, -0.055107507854700089, -0.027565917000174522, -0.051617935299873352, 0.059233255684375763, -0.052337709814310074, 0.084292404353618622, -0.017451491206884384, 0.041278857737779617, -0.043407678604125977, -0.013638213276863098, 0.094688363373279572, 0.01650184765458107, -0.016061125323176384, 0.024439651519060135, -0.017733652144670486, -0.055217783898115158, 0.09025854617357254, 0.019408496096730232, -0.056614823639392853, -0.022724809125065804, -0.053018532693386078, 0.0081227747723460197, -0.0074214483611285686, -0.044483557343482971, 0.01694505475461483, 0.076552927494049072, 0.079537138342857361, 0.05785924568772316, 0.044725075364112854, 0.065765291452407837, 0.007095961831510067, -0.032180227339267731, -0.072946645319461823, 0.037946585565805435, 0.041757449507713318, 0.039982207119464874, 0.024724299088120461, 0.052146576344966888, -0.0019047698006033897, -0.021791646257042885, 0.08424454927444458, 0.029054854065179825, 0.078784115612506866, -0.0095169525593519211, 0.0053285439498722553, -0.025794012472033501, -0.013371594250202179, 0.046787280589342117, -0.0023713416885584593, 0.1126556470990181, -0.024718882516026497, -0.016054665669798851, 0.091563865542411804, -0.024613305926322937, -0.0071153645403683186, 0.11240020394325256, 0.07267790287733078, -0.061819162219762802, -0.046489469707012177, 0.090820729732513428, -0.018736621364951134, 0.063011132180690765, -0.0052027408964931965, 0.11855635046958923, -0.038127031177282333, 0.12378785759210587, -0.030632046982645988, 0.079462885856628418, -0.046775843948125839, 0.043355129659175873, 0.10511314868927002, 0.082564175128936768, 0.022241037338972092, 0.071252733469009399, 0.052536144852638245, 0.037119995802640915, 0.089937724173069, -0.077050186693668365, 0.054523274302482605, 0.049987386912107468, 0.051306948065757751, -0.098672471940517426, 0.056166704744100571, -0.039232354611158371, 0.068441741168498993, 0.018266331404447556, -0.050781995058059692, -0.062963023781776428, 0.020424544811248779, -0.056778609752655029, 0.0097768194973468781, 0.045237097889184952, -0.10251276940107346, 0.0074697299860417843, 0.0093188071623444557, 0.068928949534893036, 0.011379017494618893, 0.014213220216333866, -0.0078573785722255707, 0.0079525411128997803, -0.065829142928123474, -0.10898406058549881, 0.00095942104235291481, 0.035661626607179642, -0.11416377127170563, 0.015023942105472088, -0.00033320582588203251, -0.083983227610588074, -0.071835629642009735, 0.054182142019271851, -0.032321181148290634, -0.092445932328701019, 0.040460437536239624, -0.046102672815322876, -0.070940002799034119, 0.031561780720949173, -0.011099036782979965, -0.0067167151719331741, 0.061827097088098526, 0.035220149904489517, 0.021564537659287453, -0.042207799851894379, 0.083473920822143555, -0.012107836082577705, -0.015515550039708614, -0.033886518329381943, -0.066105924546718597, -0.033002883195877075, 0.0089493440464138985, 0.015632782131433487, 0.079700954258441925, 0.053824838250875473, 0.046073295176029205, 0.098668329417705536, -0.05225902795791626, -0.047190010547637939, 0.028068820014595985, 0.077094316482543945, 0.062241323292255402, -0.0075572091154754162, 0.064374819397926331, -0.032543901354074478, 0.033939070999622345, 0.13859331607818604, -0.018571939319372177, -0.0085298381745815277, 0.083754181861877441, -0.05712190642952919, 0.071738727390766144, -0.023258417844772339, -0.065803289413452148, -0.043310008943080902, 0.07724221795797348, -0.01913975365459919, 0.079354144632816315, 0.039419565349817276, -0.017363404855132103, 0.012018640525639057, -0.035061944276094437, 0.11132673919200897, 0.0023755852598696947, -0.0035525504499673843, -0.033747989684343338, 0.079638272523880005, 0.067748293280601501, -0.045779999345541, -0.082322098314762115, -0.080746375024318695, -0.036897279322147369, 0.10874586552381516, -0.038875363767147064, 0.066260352730751038, -0.083156630396842957, -0.049197737127542496, -0.045333120971918106, -0.080910146236419678, -0.024555573239922523, -0.054853133857250214, -0.024110537022352219, -0.016735829412937164, 0.056289780884981155, -0.096945367753505707, -0.0079938936978578568, 0.024778345599770546, -0.078692853450775146, -0.054860640317201614, -0.050630994141101837, -0.062387321144342422, -0.088362693786621094, -0.015600021928548813, -0.0036962609738111496, -0.028269108384847641, 0.041886411607265472, -0.026710344478487968, -0.15769827365875244, -0.066932812333106995, 0.00046142117935232818, -0.033908385783433914, 0.008494020439684391, -0.077876724302768707, 0.031333666294813156, -0.024716293439269066, -0.017689744010567665, 0.0037904065102338791, 0.029788792133331299, 0.042161356657743454, -0.064923755824565887, 0.064360752701759338, -0.072870552539825439, -0.071598581969738007, 0.025689342990517616, 0.0015745426062494516, 0.029926188290119171, 0.039129838347434998, -0.0096285352483391762, 0.081667937338352203, 0.058466367423534393, 0.019719835370779037, 0.048164490610361099, -0.050526052713394165, 0.0070235985331237316, 0.046669803559780121, 0.070003785192966461, -0.061195973306894302, -0.074508637189865112, 0.036394298076629639, 0.025839485228061676, 0.04542868584394455, 0.021446868777275085, -0.067965961992740631, 0.0092115746811032295, 0.073481254279613495, -0.025603214278817177, -0.022856937721371651, -0.012994096614420414, -0.006213577464222908, 0.041772041469812393, 0.0099340220913290977, 0.073182955384254456, 0.095051020383834839, -0.049497164785861969, 0.10616104304790497, 0.064166426658630371, 0.0055798301473259926, -0.065986804664134979, -0.04126904159784317, 0.0071240519173443317, -0.046393513679504395, 0.019574770703911781, -0.027923189103603363, 0.051790833473205566, 0.048505526036024094, -0.029566081240773201, -0.0073418859392404556, 0.056200716644525528, 0.012302398681640625, 0.040345393121242523, 0.0003832070215139538, -0.088658168911933899, -0.076769620180130005, 0.080711394548416138, -0.046687334775924683, -0.05738382413983345, -0.0089477719739079475, 0.0027570484671741724, -0.050998389720916748, -0.044424246996641159, -0.069410510361194611, -0.0042821923270821571, 0.081773534417152405, 0.098268464207649231, 0.025782739743590355, 0.054365221410989761, 0.038916423916816711, 0.024695713073015213, 0.076725862920284271, 0.0584607794880867, 0.061523303389549255, -0.039761774241924286, -0.03252096101641655, 0.038818202912807465, 0.030586810782551765, -0.036805775016546249, 0.050498370081186295, -0.037744432687759399, 0.016227336600422859, -0.027271242812275887, 0.037108983844518661, -0.039317071437835693, 0.096708483994007111, -0.0071945386007428169, -0.066427677869796753, -0.064344905316829681, -0.018340649083256721, 0.01528964564204216, 0.039771843701601028, -0.01904531754553318, 0.056030392646789551, -0.016583893448114395, 0.025056412443518639, -0.037373576313257217, 0.046658918261528015, -0.054154574871063232, 0.013580352999269962, -0.061737116426229477, 0.054228980094194412, -0.075308613479137421, 0.089510932564735413, 0.0010753225069493055, 0.079322494566440582, -0.0016422024928033352, -0.06478525698184967, 0.01336832158267498, -0.032830506563186646, 0.054398383945226669, 0.060879237949848175, -0.014091723598539829, -0.0030491459183394909, -0.060417424887418747, 0.014367963187396526, -0.023345647379755974, 0.077419094741344452, 0.081089749932289124, -0.055968824774026871, 0.096659339964389801, -0.048676513135433197, 0.077248558402061462, 0.062930949032306671, 0.01651223748922348, -0.052048638463020325, 0.017959441989660263, 0.021265635266900063, -0.0083475066348910332, 0.036938078701496124, 0.099174298346042633, 0.056732505559921265, 0.076391249895095825, 0.078922845423221588, 0.0097471773624420166, 0.072165496647357941, 0.081683754920959473, -0.065791793167591095, 0.053970739245414734, 0.080221168696880341, 0.027075139805674553, -0.02982834167778492, -0.03203229233622551, -0.022475205361843109, 0.053644854575395584, 0.013261206448078156, 0.019775217399001122, -0.031464617699384689, 0.037552613765001297, 0.099969349801540375, -0.0057287178933620453, -0.015736987814307213, 0.075278714299201965, -0.029043406248092651, -0.046529520303010941, -0.043692141771316528, 0.006640424020588398, -0.025628464296460152, -0.030011968687176704, -0.087697975337505341, -0.076058991253376007, 0.025295337662100792, 0.1210099384188652, -0.0063257776200771332, 0.024636726826429367, 0.040007714182138443, -0.065118812024593353, -0.04562406986951828, -0.10838959366083145, 0.055364582687616348, -0.082033216953277588, -0.060941200703382492, 0.041361745446920395, 0.10806257277727127, 0.066720202565193176, 0.02106163464486599, -0.028814196586608887, 0.078016616404056549, 0.067807041108608246, -0.049980491399765015, 0.072501711547374725, 0.011877048760652542, -0.050529427826404572, 0.019805764779448509, 0.065773718059062958, 0.090989410877227783, -0.061357907950878143, 0.08634253591299057, -0.031127210706472397, 0.050929203629493713, 0.07488907128572464, -0.021073151379823685, -0.032693494111299515, -0.022658361122012138, 0.11413434147834778, -0.001377581967972219, -0.045815430581569672, 0.060578074306249619, -0.060730066150426865, 0.024662777781486511, -0.026674341410398483, -0.019823979586362839, 0.049029238522052765, 0.12066870182752609, -0.012432427145540714, -0.056836687028408051, 0.085969410836696625, -0.024985475465655327, 0.085586346685886383, 0.033909611403942108, 0.079810664057731628, -0.037810862064361572, 0.10263001918792725, -0.045533541589975357, 0.046532578766345978, 0.040909651666879654, 0.0085900546982884407, -0.093153886497020721, 0.01693517342209816, 0.038401000201702118, -0.021619668230414391, 0.033935558050870895, -0.031854782253503799, -0.023136589676141739, 0.03704511746764183, 0.08951801061630249, 0.060155894607305527, 0.041657015681266785, 0.07325427234172821, 0.062553830444812775, -0.038994740694761276, 0.004366336390376091, 0.0553777776658535, -0.037813048809766769, 0.10190514475107193, 0.049612853676080704, 0.045228786766529083, 0.017352292314171791, 0.043529387563467026, -0.072144448757171631, -0.032322786748409271, 0.080632522702217102, 0.098075918853282928, 0.0019118213094770908, 0.090696454048156738, 0.034447688609361649, -0.0039552254602313042, -0.067699193954467773, -0.00053538306383416057, 0.093621641397476196, 0.07483634352684021, -0.0095240576192736626, 0.062398422509431839, 0.017428621649742126, -0.051585480570793152, -0.079269669950008392, -0.029623541980981827, 0.057291291654109955, 0.021291336044669151, -0.036567840725183487, 0.12087125331163406, 0.11886841803789139, -0.0086955800652503967, 0.099964804947376251, 0.10511530190706253, -0.0010215967195108533, 0.052777547389268875, -0.056765850633382797, -0.049202580004930496, 0.070256218314170837, 0.061951711773872375, -0.06070699542760849, -0.0034518812317401171, -0.073141373693943024, 0.0074938773177564144, -0.04366626963019371, 0.047205079346895218, 0.072928927838802338, 0.033968057483434677, -0.012494860216975212, -0.032019350677728653, -0.060824636369943619, -0.052591845393180847, -0.032492224127054214, 0.063392959535121918, -0.096096575260162354, -0.10013902932405472, -0.01268075592815876, 0.060771316289901733, 0.035163816064596176, -0.013662600889801979, 0.08189941942691803, 0.09325854480266571, -0.050006739795207977, -0.082998454570770264, 0.067782759666442871, 0.10230464488267899, -0.052404101938009262, -0.0091018639504909515, 0.084834069013595581, 0.075858160853385925, 0.10278322547674179, -0.03102693147957325, -0.01205076277256012, 0.039079915732145309, 0.043428972363471985, -0.06626448780298233, 0.019391421228647232, 0.06527603417634964, 0.016334988176822662, -0.044622156769037247, 0.078742571175098419, -0.056711144745349884, -0.015896718949079514, -0.080024093389511108, -0.049166761338710785, 0.011172162368893623, -0.030132964253425598, 0.081597559154033661, 0.091735012829303741, -0.045676421374082565, 0.074142329394817352, -0.037832479923963547, -0.056222390383481979, -0.088922716677188873, 0.0026719409506767988, -0.068382062017917633, -0.090110734105110168, 0.036386549472808838, -0.025278398767113686, -0.062988340854644775, 0.076122984290122986, -0.066780209541320801, 0.050297271460294724, -0.0037930267862975597, 0.1067248210310936, 0.032061632722616196, 0.047277402132749557, -0.090303011238574982, -0.0051285112276673317, 0.079148776829242706, -0.025381946936249733, -0.060524396598339081, 0.0097912782803177834, -0.056697946041822433, 0.054018706083297729, -0.041802823543548584, -0.014693022705614567, 0.031143654137849808, -0.15417221188545227, -0.15017817914485931, -0.049776241183280945, -0.0049778022803366184, 0.085280910134315491, -0.039720244705677032, -0.1153017058968544, -0.04717181995511055, -0.025797916576266289, -0.086157515645027161, -0.054129842668771744, -0.091405592858791351, -0.1569649875164032, -0.14379937946796417, -0.01596267893910408, 0.014174199663102627, -0.043152693659067154, 0.016498755663633347, 0.070569083094596863, -0.035811223089694977, -0.025873446837067604, -0.10776041448116302, -0.011629534885287285, -0.051912732422351837, -0.075620919466018677, 0.0099515663459897041, -0.044065166264772415, 0.099492587149143219, 0.0027176518924534321, -0.044761486351490021, -0.021470613777637482, 0.027360131964087486, 0.1048581674695015, 0.021872252225875854, 0.02267339825630188, -0.07518710196018219, 0.087522991001605988, 0.0035922168754041195, -0.0051479344256222248, 0.09440971165895462, 0.059021595865488052, 0.093530885875225067, -0.00031133834272623062, -0.020982928574085236, -0.0019953637383878231, 
